0.67565197, -0.42783043, -0.32851246, -0.22392717, 2.6933882, 0.23616906, 1.2083051, -7.082705, 0.9186541, -0.1260415, 0.05191201, -0.4877127, -0.35388523, 0.6626637, 0.2924277, 1.1982757, -5.7709365, 2.4958906, 0.716508, 0.8432152, 1.3128189, -0.15450013, 0.9167731, 1.1880021, -6.137203, 1.3874811, 0.99934006, -0.14253934, 0.8006667, -0.4688711, 0.06838372, 0.004380569, -3.1094375, 0.70414907, 0.3840786, 0.34854472, 0.6896062, 0.17107889, -0.14922343, -0.17557107, 0.301834, 4.2640553, -0.063794754, 0.91741216, 1.412317, -0.12650427, -7.9985332, 1.1202756, 0.80665135, -0.043910563, 0.84137905, -2.3305066, 0.34439534, 0.00447239, 0.9265386, 0.9277805, 0.022251653, -0.4959828, 0.5862483, 1.157014, 0.16676757, 1.1070511, 0.89622676, -0.26991364, 1.4664462, 5.428727, -0.27283734, 0.70942867, -0.15611815, 7.994112, -0.36677992, 1.0345106, 0.751222, -3.8232212, -0.12442291, -4.4515977, 0.50027746, -0.39135808, 1.0794133, 1.2111331, 1.0460752, 1.2239898, 0.06542981, 0.6242743, 0.69841653, -0.27054924, -1.1429917, 0.23512492, -0.4638331, -1.0828413, -7.3375554, 0.6301961, -0.42945644, -2.2278066, -0.20588239, 1.1900212, 0.25984186, 0.18264091, 1.1995349, -0.135676, 0.7825321, -0.42201978, 0.98953855, -7.9978952, 0.104625024, 1.1360347, 0.82688856, -0.06039411, 0.2063902, 1.4498982, -3.9952595, 0.037216842, -0.009905774, -0.26482892, 0.7761893, -0.3741151, -7.2983985, -6.125828, -0.3101477, 1.407386, -0.19735748, 1.2774923, -0.1399549, 1.1450322, -0.4920281, 0.36507937, -5.988771, -3.1306403, 0.70503676, -1.259394, 0.34848133, -4.5026245, -2.2743564, 0.7482169, -0.2510476, -0.3739972, 0.4539348, -7.6408143, -0.37267256, 0.51857805, -0.28386593, 1.0379809, -0.4164366, -0.34283328, 0.8946644, -3.4581225, 0.7868713, -0.16026212, -1.325583, 1.1368384, 1.2496731, 0.18388385, 1.1104233, 0.3745314, 0.61078846, 0.22945258, 1.4403684, 0.745088, 0.6412988, 0.12994759, -7.1482706, -4.171628, -2.036516, 1.0564888, 0.5445312, 4.688139, 1.1648254, -4.3254566, -3.201879, -0.19549388, 0.42166555, 1.3097658, -0.7149006, 1.1564462, 1.3442354, 1.0947366, 0.6816801, -0.4421441, 1.447264, -0.11296058, 1.2483245, 5.103463, -0.26520398, 0.7477504, -0.027261041, 1.4633981, -0.3482391, 0.23383883, -6.338074, -0.3223964, 0.87975407, 0.6893759, -0.14805186, -0.8361641, 0.20834643, 0.4322214, 0.16218224, 0.51708066, 1.4811761, 0.07441811
-0.26855832, 0.35481158, 0.8849462, -0.14794527, 1.1007214, -0.37742555, 0.29545313, 4.6610827, 1.1766247, -0.2632577, -0.06703492, 1.298335, 0.62231594, -0.22536974, 0.5694527, 0.76026815, 1.2343767, -4.659576, -0.5581336, -0.31720564, 0.52768064, 0.32533467, 0.53228796, 1.0124977, 4.4283047, 1.190558, 0.0012185033, -0.1618446, 1.052393, -0.278964, 0.22103977, 0.77552587, 1.6641476, 1.0751555, 0.9458493, -0.038240954, -0.27876005, -0.04690709, -0.6213993, 0.26604033, -0.01808977, 1.5411154, 1.1348394, -0.32775074, -0.6894024, 0.9212581, 4.9699616, 0.0723193, -0.41178304, 1.1770196, 0.9691043, 2.062121, -0.63736045, -0.52163976, 0.26719117, -0.3414953, 0.3772957, -0.67654437, 0.93440354, 0.35289446, -0.7435387, 1.0521333, 0.7624002, 0.93414116, -0.7660516, -2.7269666, -0.37806225, 0.46326795, 1.1072001, -3.688327, -0.76546, -0.5215419, 0.3700605, 7.836964, 0.18828781, 7.99774, 0.78074545, -0.1533115, 0.8918761, 0.40649924, 0.6095516, -0.51410407, -0.45758715, 1.1151392, 0.9018743, -0.14591646, 2.5105221, -1.1344948, 0.020376544, -2.3802388, 3.6754863, 0.7020979, -0.7772023, 4.1451483, -0.31315503, 0.47275087, 0.9982513, -0.18058379, -0.64789104, -0.2996961, -0.28701934, -0.20423408, 0.5187122, 4.7016773, 0.23181212, 0.52999055, 0.7702339, 0.03940203, 0.64257926, -0.72551435, 6.9861703, 0.5645035, -0.03428655, 0.8030422, -0.27497602, -0.12638688, 4.2633915, 2.695847, -0.5833744, -0.38986024, 0.5886889, -0.0021764133, -0.3858467, 0.28606164, 0.7895431, -0.6615889, 7.6238303, 1.78729, 0.41837016, 0.27735683, -3.7193086, 2.098563, 0.99001646, 0.7972295, -0.16221297, -0.5988924, 0.47286558, 4.534948, 0.79768866, 1.1871246, -0.33248964, -0.7687579, -3.2380607, 0.4123129, -0.17410895, 2.54139, -0.14901172, -0.7694661, 1.00049, 0.7849818, -0.09568266, 0.54435265, 0.81911063, 1.0186543, -0.27253997, 0.08397911, 0.5033414, -0.023852441, -0.2873776, -0.44718358, 4.5994387, 1.899593, 0.04459645, 0.09948274, -0.5327347, 3.279311, 0.11497712, -1.3379449, 1.1524905, 0.69089633, -0.14334944, -0.7839872, -0.35804307, -0.03728454, 0.58328396, 0.9754709, 1.071311, 0.6345107, 0.13075468, 0.23864925, 1.0115378, -1.8337041, -0.07027313, 0.4983915, 1.0171099, 0.7522461, 0.79334944, 0.23016107, 4.357616, -0.68963355, 0.8998592, -0.76371104, 0.9860406, 6.751162, 0.010637388, 0.93094194, 0.51806927, 0.3789942, -0.78321666, -0.60457456
-0.5708342, 0.3618852, 0.9562894, -0.45145696, -3.5236835, 0.2964047, -0.7262266, 3.4833663, -0.6276297, -0.82908195, -0.65143067, 0.33298665, 0.2243244, -0.7391812, -0.60117745, 0.16180843, 5.062777, 2.9490428, 0.63850194, 0.47407943, -0.46487015, -0.53067863, -0.12367765, 0.7079714, 3.8948228, 0.85717213, -0.3262723, 0.52816814, 0.1159535, 0.0041363724, 0.036747158, 0.04808081, 1.2362075, 0.80344284, -0.2372346, -0.8530703, -0.110370874, 0.0392552, -0.09573566, -0.20921011, -0.7102508, -3.0581944, 0.8528836, 0.3482488, 0.22757839, 0.35211557, 3.268312, -0.046213083, -0.6541757, 1.0415797, 1.0675802, 2.3069706, 1.0912534, 0.4305334, -0.0244683, -0.5493541, 1.0666184, 0.3393986, 0.6524119, 0.8233073, 0.33858928, -0.2377151, -0.4632241, 0.19480498, -0.33349687, -2.082679, 0.42419586, 1.0476023, 0.705514, -4.4342337, 0.9849582, 0.13552113, 1.0340027, -3.8244169, -0.4445576, -4.360777, 0.42424473, -0.22817965, 0.45014304, -0.32303575, 0.4139942, 0.21202195, -0.5183909, -0.5468596, -0.6093613, -0.31999537, -1.0570829, 1.8234221, 0.36757994, 5.369227, 3.3695672, -0.069257736, -0.5497316, -2.1966698, -0.39625853, 0.23510468, 0.73620087, 0.99714994, -0.37541518, 0.41359866, -0.11766646, -0.111255094, 0.85850704, 2.8047094, 0.89153755, -0.52887684, -0.7070498, 0.16770957, -0.32002285, 0.63653404, -2.9860218, 0.45588082, 0.4323001, -0.7358724, 0.6984158, -0.68925667, 2.7633932, 3.907343, 0.111206025, 0.7175357, 0.27046576, -0.06158725, 0.5898065, 0.750238, 0.19553407, -0.78048545, -1.408678, 2.5287075, 0.49057698, 1.2408386, 5.372033, 2.732689, 2.2498589, 0.39252412, 0.55992603, 0.61309105, 0.8496697, 2.5071638, -0.50735766, 0.4702533, 0.31459856, -0.5658455, 4.8036585, 0.3312022, 0.13050056, 2.0028994, -0.07939369, -0.26705664, 0.6539943, 0.4613005, -0.122068085, 0.673555, 0.2609526, 0.01709751, -0.16615318, 0.15756723, 0.4330355, 1.0391176, -0.41234374, -0.6829775, 3.7164483, 0.99327874, 0.9491218, 1.0183687, 0.4442172, -6.0044823, 0.4639604, 6.7189474, 1.4509107, 0.10393509, -0.84340084, 0.30593976, -0.337435, 0.35458118, 0.64510983, -0.27267247, 0.615791, 0.11704498, -0.5612322, -0.6315322, 1.1031753, -3.0562713, 0.41186166, -0.31963846, -0.18060753, -0.4615124, 0.25550672, 1.0952597, 3.488289, -0.069060385, -0.04413095, -0.17202905, -0.3604883, -4.7313614, 1.1176814, 0.4147731, -0.6556016, 0.4053432, -0.21437639, -0.25381094