hide: [0.72069144, -0.5506201, -0.9286789, 0.7806959, 0.98738503, 0.20625424, -0.65612674, -0.17488813, 0.7405057, 0.3012128, 0.19439065, -0.64916754, 0.48529434, 0.34863305, 0.2858249, 0.6487068, 0.03729856, 0.5133164, 0.23403239, 0.43171132, -0.6589353, -0.15788221, 0.22676194, 0.031609416, -0.1023674, 0.15116167, -0.6481986, 0.7355232, 0.79427683, 0.22632575, -0.91889083, -0.31065214, 0.22981954, 0.14939487, -0.38044596, 0.8330376, -0.63692534, 0.30691063, -0.16844797, 0.49797928, 0.010681987, 0.32380295, 0.6289041, 0.39916396, -0.54879284, 0.7085316, -0.14981794, 0.6826298, -0.19784427, 0.6513629, 0.26708984, 0.1952815, 0.4072069, 0.08378732, 0.5927303, 0.4639696, 0.15785635, -0.53970945, -0.7470473, -0.75141597, -0.070440054, -0.3150884, 0.046837807, -0.56333137, 0.3152356, 0.9030689, 0.98892426, 0.30817533, -0.8059845, -0.8454503, 0.0010267496, -0.23508406, 0.1916498, 0.9495547, 0.8009956, -0.09583616, 0.10608709, 0.53551555, -0.8957553, -0.763906, 0.6523268, -0.1821264, 0.30498195, 0.64220476, -0.51021373, -0.39477193, 0.43975067, 0.28005219, 0.8539789, 0.88741946, 0.22517669, 0.00036287308, -0.0544672, 0.028767109, -0.8646436, -0.8153249, -0.7646929, -0.5692593, -0.56627774, 0.49974036, -0.383268, 0.46764195, 0.69079316, -0.13071907, 0.10232115, 0.7080667, 0.06808424, 0.7745453, -0.39034796, -0.26135337, 0.6139723, -0.4639125, -0.04602325, -0.56239223, 0.22377133, -0.2297858, -0.11832821, 0.44868863, 0.467198, 0.056191087, -0.83279836, 0.58902025, 0.0029788017, 0.21613777, 0.9682596, -0.69642925, 0.2306397, -0.18179023, 0.32555187, -0.41169977, 0.25921392, -0.7562151, 0.13605201, -0.24837768, 0.51009274, 0.5430784, 0.20140994, -0.29287696, -0.9077302, 0.23857188, -0.8387275, -0.8145983, 0.70181346, -0.8154869, -0.47043324, 0.13175833, 0.59091234, -0.9621422, 0.2516414, -0.01543808, 0.08538854, -0.61594963, -0.18740761, -0.90451765, 0.17112958, 0.1062752, -0.47701585, 0.2101841, 0.4075967, -0.8488101, -0.19595766, 0.51025665, 0.67867434, 0.7835537, 0.6263186, 0.57212996, -0.8230815, 0.06641221, -0.8332745, 0.63446105, 0.3014326, 0.570879, -0.8072487, -0.5053487, 0.6559502, 0.72280073, 0.7396829, -0.88722956, -0.1292212, 0.9849955, -0.17122054, -0.37608695, 0.69096375, -0.5741615, -0.6357738, 0.13309884, -0.5354074, -0.032761574, 0.18584645, 0.07894969, -0.63415265, 0.835631, 0.0743916, -0.6040094, 0.83163214, 0.9354354, -0.3582592, 0.24950719, 0.89661944, -0.9861468, ]
---------------------------------------------------------------------------------------------------------------------------------------------------------0
hide: [0.72069144, -0.5506201, -0.82867885, 0.88069594, 1.087385, 0.30625424, -0.65612674, -0.17488813, 0.8405057, 0.3012128, 0.19439065, -0.64916754, 0.58529437, 0.44863304, 0.2858249, 0.6487068, 0.03729856, 0.5133164, 0.3340324, 0.53171134, -0.6589353, -0.15788221, 0.22676194, 0.031609416, -0.1023674, 0.15116167, -0.6481986, 0.7355232, 0.89427686, 0.32632574, -0.8188908, -0.31065214, 0.32981953, 0.24939486, -0.28044596, 0.8330376, -0.63692534, 0.40691063, -0.06844797, 0.49797928, 0.010681987, 0.32380295, 0.7289041, 0.49916396, -0.44879285, 0.80853164, -0.14981794, 0.6826298, -0.097844265, 0.7513629, 0.36708984, 0.1952815, 0.4072069, 0.18378732, 0.6927303, 0.5639696, 0.25785634, -0.53970945, -0.7470473, -0.65141594, -0.070440054, -0.3150884, 0.1468378, -0.46333137, 0.3152356, 0.9030689, 1.0889243, 0.40817532, -0.7059845, -0.8454503, 0.0010267496, -0.23508406, 0.2916498, 0.9495547, 0.8009956, -0.09583616, 0.20608708, 0.6355156, -0.79575527, -0.663906, 0.6523268, -0.0821264, 0.30498195, 0.64220476, -0.41021374, -0.39477193, 0.43975067, 0.28005219, 0.9539789, 0.88741946, 0.22517669, 0.00036287308, -0.0544672, 0.028767109, -0.76464355, -0.7153249, -0.6646929, -0.4692593, -0.56627774, 0.49974036, -0.283268, 0.46764195, 0.7907932, -0.13071907, 0.20232114, 0.8080667, 0.06808424, 0.87454534, -0.29034796, -0.16135338, 0.6139723, -0.3639125, 0.053976752, -0.56239223, 0.22377133, -0.2297858, -0.11832821, 0.44868863, 0.56719804, 0.15619108, -0.83279836, 0.6890203, 0.1029788, 0.31613776, 1.0682596, -0.69642925, 0.2306397, -0.08179023, 0.32555187, -0.31169978, 0.25921392, -0.6562151, 0.236052, -0.24837768, 0.51009274, 0.5430784, 0.20140994, -0.29287696, -0.9077302, 0.23857188, -0.73872745, -0.7145983, 0.8018135, -0.8154869, -0.47043324, 0.23175833, 0.69091237, -0.9621422, 0.3516414, -0.01543808, 0.18538854, -0.61594963, -0.08740761, -0.8045176, 0.27112958, 0.2062752, -0.47701585, 0.3101841, 0.4075967, -0.74881005, -0.19595766, 0.51025665, 0.77867436, 0.7835537, 0.7263186, 0.57212996, -0.8230815, 0.06641221, -0.8332745, 0.63446105, 0.3014326, 0.670879, -0.8072487, -0.4053487, 0.7559502, 0.72280073, 0.7396829, -0.78722954, -0.0292212, 0.9849955, -0.17122054, -0.37608695, 0.79096377, -0.47416154, -0.6357738, 0.23309883, -0.5354074, 0.06723843, 0.18584645, 0.07894969, -0.63415265, 0.93563104, 0.0743916, -0.6040094, 0.83163214, 0.9354354, -0.3582592, 0.24950719, 0.89661944, -0.9861468, ]
---------------------------------------------------------------------------------------------------------------------------------------------------------1
hide: [0.72069144, -0.5506201, -0.7286788, 0.98069596, 1.1873851, 0.40625423, -0.65612674, -0.17488813, 0.94050574, 0.3012128, 0.19439065, -0.64916754, 0.6852944, 0.54863304, 0.2858249, 0.6487068, 0.03729856, 0.5133164, 0.43403238, 0.63171136, -0.6589353, -0.15788221, 0.22676194, 0.031609416, -0.1023674, 0.15116167, -0.6481986, 0.7355232, 0.9942769, 0.42632574, -0.7188908, -0.31065214, 0.42981952, 0.34939486, -0.18044597, 0.8330376, -0.63692534, 0.5069106, 0.03155203, 0.49797928, 0.010681987, 0.32380295, 0.82890415, 0.59916395, -0.34879285, 0.90853167, -0.14981794, 0.6826298, 0.002155736, 0.85136294, 0.46708983, 0.1952815, 0.4072069, 0.2837873, 0.79273033, 0.66396964, 0.35785633, -0.53970945, -0.7470473, -0.5514159, -0.070440054, -0.3150884, 0.2468378, -0.36333138, 0.3152356, 0.9030689, 1.1889243, 0.5081753, -0.60598445, -0.8454503, 0.0010267496, -0.23508406, 0.39164978, 0.9495547, 0.8009956, -0.09583616, 0.30608708, 0.7355156, -0.69575524, -0.56390595, 0.6523268, 0.0178736, 0.30498195, 0.64220476, -0.31021374, -0.39477193, 0.43975067, 0.28005219, 1.0539789, 0.88741946, 0.22517669, 0.00036287308, -0.0544672, 0.028767109, -0.6646435, -0.61532485, -0.56469285, -0.3692593, -0.56627774, 0.49974036, -0.18326801, 0.46764195, 0.8907932, -0.13071907, 0.30232114, 0.90806675, 0.06808424, 0.97454536, -0.19034797, -0.061353378, 0.6139723, -0.2639125, 0.15397675, -0.56239223, 0.22377133, -0.2297858, -0.11832821, 0.44868863, 0.66719806, 0.25619107, -0.83279836, 0.7890203, 0.2029788, 0.41613775, 1.1682596, -0.69642925, 0.2306397, 0.01820977, 0.32555187, -0.21169978, 0.25921392, -0.55621505, 0.336052, -0.24837768, 0.51009274, 0.5430784, 0.20140994, -0.29287696, -0.9077302, 0.23857188, -0.6387274, -0.6145983, 0.9018135, -0.8154869, -0.47043324, 0.33175832, 0.7909124, -0.9621422, 0.45164138, -0.01543808, 0.28538853, -0.61594963, 0.01259239, -0.7045176, 0.37112957, 0.3062752, -0.47701585, 0.4101841, 0.4075967, -0.64881, -0.19595766, 0.51025665, 0.8786744, 0.7835537, 0.8263186, 0.57212996, -0.8230815, 0.06641221, -0.8332745, 0.63446105, 0.3014326, 0.77087903, -0.8072487, -0.3053487, 0.85595024, 0.72280073, 0.7396829, -0.6872295, 0.0707788, 0.9849955, -0.17122054, -0.37608695, 0.8909638, -0.37416154, -0.6357738, 0.33309883, -0.5354074, 0.16723843, 0.18584645, 0.07894969, -0.63415265, 1.0356311, 0.0743916, -0.6040094, 0.83163214, 0.9354354, -0.3582592, 0.24950719, 0.89661944, -0.9861468, ]
---------------------------------------------------------------------------------------------------------------------------------------------------------2
hide: [0.72069144, -0.5506201, -0.6286788, 1.080696, 1.2873851, 0.50625426, -0.65612674, -0.17488813, 1.0405058, 0.3012128, 0.19439065, -0.64916754, 0.7852944, 0.64863306, 0.2858249, 0.6487068, 0.03729856, 0.5133164, 0.5340324, 0.7317114, -0.6589353, -0.15788221, 0.22676194, 0.031609416, -0.1023674, 0.15116167, -0.6481986, 0.7355232, 1.0942769, 0.52632576, -0.61889076, -0.31065214, 0.52981955, 0.44939485, -0.08044597, 0.8330376, -0.63692534, 0.60691065, 0.13155204, 0.49797928, 0.010681987, 0.32380295, 0.9289042, 0.699164, -0.24879286, 1.0085317, -0.14981794, 0.6826298, 0.10215574, 0.95136297, 0.56708986, 0.1952815, 0.4072069, 0.3837873, 0.89273036, 0.76396966, 0.45785633, -0.53970945, -0.7470473, -0.45141593, -0.070440054, -0.3150884, 0.3468378, -0.26333138, 0.3152356, 0.9030689, 1.2889243, 0.60817534, -0.5059844, -0.8454503, 0.0010267496, -0.23508406, 0.49164978, 0.9495547, 0.8009956, -0.09583616, 0.40608707, 0.8355156, -0.5957552, -0.46390596, 0.6523268, 0.1178736, 0.30498195, 0.64220476, -0.21021375, -0.39477193, 0.43975067, 0.28005219, 1.153979, 0.88741946, 0.22517669, 0.00036287308, -0.0544672, 0.028767109, -0.5646435, -0.51532483, -0.46469286, -0.2692593, -0.56627774, 0.49974036, -0.08326801, 0.46764195, 0.9907932, -0.13071907, 0.40232113, 1.0080668, 0.06808424, 1.0745454, -0.09034797, 0.038646623, 0.6139723, -0.1639125, 0.25397676, -0.56239223, 0.22377133, -0.2297858, -0.11832821, 0.44868863, 0.7671981, 0.35619107, -0.83279836, 0.8890203, 0.3029788, 0.5161378, 1.2682596, -0.69642925, 0.2306397, 0.11820977, 0.32555187, -0.11169978, 0.25921392, -0.45621505, 0.436052, -0.24837768, 0.51009274, 0.5430784, 0.20140994, -0.29287696, -0.9077302, 0.23857188, -0.5387274, -0.51459825, 1.0018135, -0.8154869, -0.47043324, 0.4317583, 0.8909124, -0.9621422, 0.5516414, -0.01543808, 0.38538852, -0.61594963, 0.11259239, -0.6045176, 0.47112957, 0.40627518, -0.47701585, 0.5101841, 0.4075967, -0.54881, -0.19595766, 0.51025665, 0.9786744, 0.7835537, 0.92631865, 0.57212996, -0.8230815, 0.06641221, -0.8332745, 0.63446105, 0.3014326, 0.87087905, -0.8072487, -0.2053487, 0.95595026, 0.72280073, 0.7396829, -0.5872295, 0.17077881, 0.9849955, -0.17122054, -0.37608695, 0.9909638, -0.27416155, -0.6357738, 0.43309882, -0.5354074, 0.26723844, 0.18584645, 0.07894969, -0.63415265, 1.1356311, 0.0743916, -0.6040094, 0.83163214, 0.9354354, -0.3582592, 0.24950719, 0.89661944, -0.9861468, ]
---------------------------------------------------------------------------------------------------------------------------------------------------------3
hide: [0.72069144, -0.5506201, -0.5286788, 1.180696, 1.3873851, 0.6062543, -0.65612674, -0.17488813, 1.1405058, 0.3012128, 0.19439065, -0.64916754, 0.88529444, 0.7486331, 0.2858249, 0.6487068, 0.03729856, 0.5133164, 0.6340324, 0.8317114, -0.6589353, -0.15788221, 0.22676194, 0.031609416, -0.1023674, 0.15116167, -0.6481986, 0.7355232, 1.0942769, 0.6263258, -0.51889074, -0.31065214, 0.52981955, 0.54939485, -0.08044597, 0.8330376, -0.63692534, 0.70691067, 0.23155203, 0.49797928, 0.010681987, 0.32380295, 1.0289042, 0.799164, -0.14879286, 1.1085317, -0.14981794, 0.6826298, 0.20215574, 1.051363, 0.6670899, 0.1952815, 0.4072069, 0.4837873, 0.9927304, 0.8639697, 0.5578563, -0.53970945, -0.7470473, -0.35141593, -0.070440054, -0.3150884, 0.44683778, -0.16333139, 0.3152356, 0.9030689, 1.3889244, 0.70817536, -0.40598443, -0.8454503, 0.0010267496, -0.23508406, 0.5916498, 0.9495547, 0.8009956, -0.09583616, 0.50608706, 0.93551564, -0.49575523, -0.36390597, 0.6523268, 0.2178736, 0.30498195, 0.64220476, -0.11021375, -0.39477193, 0.43975067, 0.28005219, 1.253979, 0.88741946, 0.22517669, 0.00036287308, -0.0544672, 0.028767109, -0.4646435, -0.41532484, -0.46469286, -0.16925931, -0.56627774, 0.49974036, 0.016731992, 0.46764195, 1.0907933, -0.13071907, 0.5023211, 1.1080668, 0.06808424, 1.1745454, -0.09034797, 0.13864663, 0.6139723, -0.0639125, 0.35397676, -0.56239223, 0.22377133, -0.2297858, -0.11832821, 0.44868863, 0.8671981, 0.45619106, -0.83279836, 0.98902035, 0.4029788, 0.6161378, 1.3682597, -0.69642925, 0.2306397, 0.21820977, 0.32555187, -0.011699781, 0.25921392, -0.35621506, 0.536052, -0.24837768, 0.51009274, 0.5430784, 0.20140994, -0.29287696, -0.9077302, 0.23857188, -0.4387274, -0.41459826, 1.1018136, -0.8154869, -0.47043324, 0.5317583, 0.99091244, -0.9621422, 0.6516414, -0.01543808, 0.48538852, -0.61594963, 0.2125924, -0.6045176, 0.57112956, 0.5062752, -0.47701585, 0.5101841, 0.4075967, -0.44881, -0.19595766, 0.51025665, 1.0786744, 0.7835537, 1.0263187, 0.57212996, -0.8230815, 0.06641221, -0.8332745, 0.63446105, 0.3014326, 0.9708791, -0.8072487, -0.2053487, 1.0559503, 0.72280073, 0.7396829, -0.4872295, 0.2707788, 0.9849955, -0.17122054, -0.37608695, 1.0909638, -0.17416155, -0.6357738, 0.5330988, -0.5354074, 0.36723843, 0.18584645, 0.07894969, -0.63415265, 1.2356311, 0.0743916, -0.6040094, 0.83163214, 0.9354354, -0.3582592, 0.24950719, 0.89661944, -0.9861468, ]
---------------------------------------------------------------------------------------------------------------------------------------------------------4
hide: [0.72069144, -0.5506201, -0.42867878, 1.280696, 1.4873852, 0.7062543, -0.65612674, -0.17488813, 1.2405058, 0.3012128, 0.19439065, -0.64916754, 0.98529446, 0.8486331, 0.2858249, 0.6487068, 0.03729856, 0.5133164, 0.73403245, 0.93171144, -0.6589353, -0.15788221, 0.22676194, 0.031609416, -0.1023674, 0.15116167, -0.6481986, 0.7355232, 1.1942769, 0.7263258, -0.41889074, -0.31065214, 0.6298196, 0.64939487, 0.019554034, 0.8330376, -0.63692534, 0.8069107, 0.33155203, 0.49797928, 0.010681987, 0.32380295, 1.1289042, 0.899164, -0.04879286, 1.2085317, -0.14981794, 0.6826298, 0.30215573, 1.151363, 0.7670899, 0.1952815, 0.4072069, 0.5837873, 1.0927304, 0.9639697, 0.65785635, -0.53970945, -0.7470473, -0.25141594, -0.070440054, -0.3150884, 0.5468378, -0.06333139, 0.3152356, 0.9030689, 1.4889244, 0.8081754, -0.30598444, -0.8454503, 0.0010267496, -0.23508406, 0.6916498, 0.9495547, 0.8009956, -0.09583616, 0.6060871, 1.0355157, -0.39575523, -0.26390597, 0.6523268, 0.3178736, 0.30498195, 0.64220476, -0.010213748, -0.39477193, 0.43975067, 0.28005219, 1.353979, 0.88741946, 0.22517669, 0.00036287308, -0.0544672, 0.028767109, -0.3646435, -0.31532484, -0.36469287, -0.06925931, -0.56627774, 0.49974036, 0.116731994, 0.46764195, 1.1907933, -0.13071907, 0.60232115, 1.2080668, 0.06808424, 1.2745454, 0.009652033, 0.23864663, 0.6139723, 0.036087498, 0.45397675, -0.56239223, 0.22377133, -0.2297858, -0.11832821, 0.44868863, 0.96719813, 0.5561911, -0.83279836, 1.0890204, 0.5029788, 0.7161378, 1.4682597, -0.69642925, 0.2306397, 0.31820977, 0.32555187, 0.08830022, 0.25921392, -0.25621507, 0.636052, -0.24837768, 0.51009274, 0.5430784, 0.20140994, -0.29287696, -0.9077302, 0.23857188, -0.3387274, -0.31459826, 1.2018136, -0.8154869, -0.47043324, 0.63175833, 1.0909125, -0.9621422, 0.75164145, -0.01543808, 0.58538854, -0.61594963, 0.3125924, -0.50451756, 0.6711296, 0.6062752, -0.47701585, 0.61018413, 0.4075967, -0.34881002, -0.19595766, 0.51025665, 1.1786745, 0.7835537, 1.1263187, 0.57212996, -0.8230815, 0.06641221, -0.8332745, 0.63446105, 0.3014326, 1.0708791, -0.8072487, -0.1053487, 1.1559503, 0.72280073, 0.7396829, -0.3872295, 0.3707788, 0.9849955, -0.17122054, -0.37608695, 1.1909639, -0.07416155, -0.6357738, 0.63309884, -0.5354074, 0.46723843, 0.18584645, 0.07894969, -0.63415265, 1.3356311, 0.0743916, -0.6040094, 0.83163214, 0.9354354, -0.3582592, 0.24950719, 0.89661944, -0.9861468, ]
---------------------------------------------------------------------------------------------------------------------------------------------------------5
hide: [0.72069144, -0.5506201, -0.37867877, 1.330696, 1.5373851, 0.7562543, -0.65612674, -0.17488813, 1.2905058, 0.3012128, 0.19439065, -0.64916754, 1.0352944, 0.8986331, 0.2858249, 0.6487068, 0.03729856, 0.5133164, 0.78403246, 0.98171145, -0.6589353, -0.15788221, 0.22676194, 0.031609416, -0.1023674, 0.15116167, -0.6481986, 0.7355232, 1.1942769, 0.7763258, -0.36889073, -0.31065214, 0.6298196, 0.6993949, 0.019554034, 0.8330376, -0.63692534, 0.8569107, 0.38155204, 0.49797928, 0.010681987, 0.32380295, 1.1789042, 0.94916403, 0.0012071393, 1.2585317, -0.14981794, 0.6826298, 0.35215575, 1.201363, 0.8170899, 0.1952815, 0.4072069, 0.63378733, 1.1427304, 1.0139697, 0.70785636, -0.53970945, -0.7470473, -0.20141594, -0.070440054, -0.3150884, 0.5968378, -0.013331387, 0.3152356, 0.9030689, 1.5389243, 0.8581754, -0.25598443, -0.8454503, 0.0010267496, -0.23508406, 0.7416498, 0.9495547, 0.8009956, -0.09583616, 0.6560871, 1.0855156, -0.34575522, -0.21390598, 0.6523268, 0.3678736, 0.30498195, 0.64220476, 0.039786253, -0.39477193, 0.43975067, 0.28005219, 1.403979, 0.88741946, 0.22517669, 0.00036287308, -0.0544672, 0.028767109, -0.3146435, -0.26532483, -0.36469287, -0.019259308, -0.56627774, 0.49974036, 0.166732, 0.46764195, 1.2407932, -0.13071907, 0.65232116, 1.2580668, 0.06808424, 1.3245454, 0.009652033, 0.28864664, 0.6139723, 0.086087495, 0.50397676, -0.56239223, 0.22377133, -0.2297858, -0.11832821, 0.44868863, 1.0171981, 0.6061911, -0.83279836, 1.1390203, 0.5529788, 0.76613784, 1.5182596, -0.69642925, 0.2306397, 0.36820978, 0.32555187, 0.13830023, 0.25921392, -0.20621507, 0.686052, -0.24837768, 0.51009274, 0.5430784, 0.20140994, -0.29287696, -0.9077302, 0.23857188, -0.2887274, -0.26459825, 1.2518135, -0.8154869, -0.47043324, 0.68175834, 1.1409124, -0.9621422, 0.80164146, -0.01543808, 0.63538855, -0.61594963, 0.3625924, -0.50451756, 0.7211296, 0.6562752, -0.47701585, 0.61018413, 0.4075967, -0.29881, -0.19595766, 0.51025665, 1.2286744, 0.7835537, 1.1763186, 0.57212996, -0.8230815, 0.06641221, -0.8332745, 0.63446105, 0.3014326, 1.120879, -0.8072487, -0.1053487, 1.2059503, 0.72280073, 0.7396829, -0.3372295, 0.4207788, 0.9849955, -0.17122054, -0.37608695, 1.2409638, -0.024161551, -0.6357738, 0.68309885, -0.5354074, 0.51723844, 0.18584645, 0.07894969, -0.63415265, 1.3856311, 0.0743916, -0.6040094, 0.83163214, 0.9354354, -0.3582592, 0.24950719, 0.89661944, -0.9861468, ]
---------------------------------------------------------------------------------------------------------------------------------------------------------6
hide: [0.72069144, -0.5506201, -0.32867876, 1.3806959, 1.587385, 0.8062543, -0.65612674, -0.17488813, 1.3405057, 0.3012128, 0.19439065, -0.64916754, 1.0852944, 0.94863313, 0.2858249, 0.6487068, 0.03729856, 0.5133164, 0.8340325, 1.0317115, -0.6589353, -0.15788221, 0.22676194, 0.031609416, -0.1023674, 0.15116167, -0.6481986, 0.7355232, 1.1942769, 0.82632583, -0.31889072, -0.31065214, 0.6298196, 0.7493949, 0.019554034, 0.8330376, -0.63692534, 0.9069107, 0.43155205, 0.49797928, 0.010681987, 0.32380295, 1.2289041, 0.99916404, 0.05120714, 1.3085316, -0.14981794, 0.6826298, 0.40215576, 1.2513629, 0.8670899, 0.1952815, 0.4072069, 0.68378735, 1.1927303, 1.0639696, 0.75785637, -0.53970945, -0.7470473, -0.15141594, -0.070440054, -0.3150884, 0.64683783, 0.036668614, 0.3152356, 0.9030689, 1.5889243, 0.9081754, -0.20598443, -0.8454503, 0.0010267496, -0.23508406, 0.7916498, 0.9495547, 0.8009956, -0.09583616, 0.7060871, 1.1355156, -0.2957552, -0.16390598, 0.6523268, 0.41787362, 0.30498195, 0.64220476, 0.089786254, -0.39477193, 0.43975067, 0.28005219, 1.4539789, 0.88741946, 0.22517669, 0.00036287308, -0.0544672, 0.028767109, -0.2646435, -0.21532483, -0.36469287, 0.030740693, -0.56627774, 0.49974036, 0.216732, 0.46764195, 1.2907932, -0.13071907, 0.7023212, 1.3080667, 0.06808424, 1.3745453, 0.009652033, 0.33864665, 0.6139723, 0.13608749, 0.5539768, -0.56239223, 0.22377133, -0.2297858, -0.11832821, 0.44868863, 1.067198, 0.6561911, -0.83279836, 1.1890203, 0.6029788, 0.81613785, 1.5682596, -0.69642925, 0.2306397, 0.4182098, 0.32555187, 0.18830022, 0.25921392, -0.15621507, 0.73605204, -0.24837768, 0.51009274, 0.5430784, 0.20140994, -0.29287696, -0.9077302, 0.23857188, -0.2387274, -0.21459825, 1.3018135, -0.8154869, -0.47043324, 0.73175836, 1.1909124, -0.9621422, 0.8516415, -0.01543808, 0.68538857, -0.61594963, 0.4125924, -0.50451756, 0.7711296, 0.7062752, -0.47701585, 0.61018413, 0.4075967, -0.24881001, -0.19595766, 0.51025665, 1.2786744, 0.7835537, 1.2263186, 0.57212996, -0.8230815, 0.06641221, -0.8332745, 0.63446105, 0.3014326, 1.170879, -0.8072487, -0.1053487, 1.2559502, 0.72280073, 0.7396829, -0.28722948, 0.47077882, 0.9849955, -0.17122054, -0.37608695, 1.2909638, 0.02583845, -0.6357738, 0.73309886, -0.5354074, 0.56723845, 0.18584645, 0.07894969, -0.63415265, 1.435631, 0.0743916, -0.6040094, 0.83163214, 0.9354354, -0.3582592, 0.24950719, 0.89661944, -0.9861468, ]
---------------------------------------------------------------------------------------------------------------------------------------------------------7
hide: [0.72069144, -0.5506201, -0.27867875, 1.4306959, 1.637385, 0.85625434, -0.65612674, -0.17488813, 1.3905057, 0.3012128, 0.19439065, -0.64916754, 1.1352943, 0.99863315, 0.2858249, 0.6487068, 0.03729856, 0.5133164, 0.8840325, 1.0817114, -0.6589353, -0.15788221, 0.22676194, 0.031609416, -0.1023674, 0.15116167, -0.6481986, 0.7355232, 1.2442769, 0.87632585, -0.2688907, -0.31065214, 0.6798196, 0.7993949, 0.06955403, 0.8330376, -0.63692534, 0.9569107, 0.48155206, 0.49797928, 0.010681987, 0.32380295, 1.2789041, 1.049164, 0.10120714, 1.3585316, -0.14981794, 0.6826298, 0.45215577, 1.3013629, 0.91708994, 0.1952815, 0.4072069, 0.73378736, 1.2427303, 1.1139696, 0.8078564, -0.53970945, -0.7470473, -0.10141595, -0.070440054, -0.3150884, 0.69683784, 0.08666861, 0.3152356, 0.9030689, 1.6389242, 0.9581754, -0.15598443, -0.8454503, 0.0010267496, -0.23508406, 0.84164983, 0.9495547, 0.8009956, -0.09583616, 0.7560871, 1.1855155, -0.24575521, -0.11390598, 0.6523268, 0.46787363, 0.30498195, 0.64220476, 0.13978626, -0.39477193, 0.43975067, 0.28005219, 1.5039788, 0.88741946, 0.22517669, 0.00036287308, -0.0544672, 0.028767109, -0.2146435, -0.16532484, -0.31469285, 0.08074069, -0.56627774, 0.49974036, 0.266732, 0.46764195, 1.3407931, -0.13071907, 0.7523212, 1.3580667, 0.06808424, 1.4245453, 0.059652034, 0.38864666, 0.6139723, 0.18608749, 0.6039768, -0.56239223, 0.22377133, -0.2297858, -0.11832821, 0.44868863, 1.117198, 0.7061911, -0.83279836, 1.2390202, 0.65297884, 0.86613786, 1.6182595, -0.69642925, 0.2306397, 0.4682098, 0.32555187, 0.23830022, 0.25921392, -0.106215075, 0.78605205, -0.24837768, 0.51009274, 0.5430784, 0.20140994, -0.29287696, -0.9077302, 0.23857188, -0.18872741, -0.16459826, 1.3518134, -0.8154869, -0.47043324, 0.78175837, 1.2409123, -0.9621422, 0.9016415, -0.01543808, 0.7353886, -0.61594963, 0.46259242, -0.45451754, 0.8211296, 0.75627524, -0.47701585, 0.66018414, 0.4075967, -0.19881001, -0.19595766, 0.51025665, 1.3286743, 0.7835537, 1.2763186, 0.57212996, -0.8230815, 0.06641221, -0.8332745, 0.63446105, 0.3014326, 1.220879, -0.8072487, -0.055348698, 1.3059502, 0.72280073, 0.7396829, -0.23722948, 0.52077883, 0.9849955, -0.17122054, -0.37608695, 1.3409637, 0.07583845, -0.6357738, 0.7830989, -0.5354074, 0.61723846, 0.18584645, 0.07894969, -0.63415265, 1.485631, 0.0743916, -0.6040094, 0.83163214, 0.9354354, -0.3582592, 0.24950719, 0.89661944, -0.9861468, ]
---------------------------------------------------------------------------------------------------------------------------------------------------------8
hide: [0.72069144, -0.5506201, -0.22867875, 1.4806958, 1.687385, 0.90625435, -0.65612674, -0.17488813, 1.4405056, 0.3012128, 0.19439065, -0.64916754, 1.1852943, 1.0486331, 0.2858249, 0.6487068, 0.03729856, 0.5133164, 0.9340325, 1.1317114, -0.6589353, -0.15788221, 0.22676194, 0.031609416, -0.1023674, 0.15116167, -0.6481986, 0.7355232, 1.2942768, 0.92632586, -0.21889071, -0.31065214, 0.7298196, 0.8493949, 0.11955403, 0.8330376, -0.63692534, 1.0069107, 0.5315521, 0.49797928, 0.010681987, 0.32380295, 1.328904, 1.099164, 0.15120713, 1.4085315, -0.14981794, 0.6826298, 0.5021558, 1.3513628, 0.96708995, 0.1952815, 0.4072069, 0.78378737, 1.2927302, 1.1639695, 0.8578564, -0.53970945, -0.7470473, -0.051415946, -0.070440054, -0.3150884, 0.74683785, 0.13666861, 0.3152356, 0.9030689, 1.6889242, 1.0081754, -0.105984434, -0.8454503, 0.0010267496, -0.23508406, 0.89164984, 0.9495547, 0.8009956, -0.09583616, 0.80608714, 1.2355155, -0.19575521, -0.063905984, 0.6523268, 0.51787364, 0.30498195, 0.64220476, 0.18978626, -0.39477193, 0.43975067, 0.28005219, 1.5539788, 0.88741946, 0.22517669, 0.00036287308, -0.0544672, 0.028767109, -0.1646435, -0.11532484, -0.26469284, 0.13074069, -0.56627774, 0.49974036, 0.31673202, 0.46764195, 1.3907931, -0.13071907, 0.8023212, 1.4080666, 0.06808424, 1.4745452, 0.109652035, 0.43864667, 0.6139723, 0.23608749, 0.6539768, -0.56239223, 0.22377133, -0.2297858, -0.11832821, 0.44868863, 1.167198, 0.75619113, -0.83279836, 1.2890202, 0.70297885, 0.9161379, 1.6682595, -0.69642925, 0.2306397, 0.5182098, 0.32555187, 0.28830022, 0.25921392, -0.056215074, 0.83605206, -0.24837768, 0.51009274, 0.5430784, 0.20140994, -0.29287696, -0.9077302, 0.23857188, -0.13872741, -0.11459826, 1.4018134, -0.8154869, -0.47043324, 0.8317584, 1.2909123, -0.9621422, 0.9516415, -0.01543808, 0.7853886, -0.61594963, 0.51259243, -0.40451753, 0.87112963, 0.80627525, -0.47701585, 0.71018416, 0.4075967, -0.14881001, -0.19595766, 0.51025665, 1.3786743, 0.7835537, 1.3263185, 0.57212996, -0.8230815, 0.06641221, -0.8332745, 0.63446105, 0.3014326, 1.2708789, -0.8072487, -0.0053486973, 1.3559501, 0.72280073, 0.7396829, -0.18722948, 0.57077885, 0.9849955, -0.17122054, -0.37608695, 1.3909637, 0.12583844, -0.6357738, 0.8330989, -0.5354074, 0.6672385, 0.18584645, 0.07894969, -0.63415265, 1.535631, 0.0743916, -0.6040094, 0.83163214, 0.9354354, -0.3582592, 0.24950719, 0.89661944, -0.9861468, ]
---------------------------------------------------------------------------------------------------------------------------------------------------------9
hide: [0.72069144, -0.5506201, -0.17867875, 1.5306958, 1.7373849, 0.95625436, -0.65612674, -0.17488813, 1.4905056, 0.3012128, 0.19439065, -0.64916754, 1.2352942, 1.098633, 0.2858249, 0.6487068, 0.03729856, 0.5133164, 0.9840325, 1.1817113, -0.6589353, -0.15788221, 0.22676194, 0.031609416, -0.1023674, 0.15116167, -0.6481986, 0.7355232, 1.3442768, 0.97632587, -0.16889071, -0.31065214, 0.7298196, 0.8993949, 0.16955402, 0.8330376, -0.63692534, 1.0569106, 0.5815521, 0.49797928, 0.010681987, 0.32380295, 1.378904, 1.149164, 0.20120713, 1.4585315, -0.14981794, 0.6826298, 0.5521558, 1.4013628, 1.01709, 0.1952815, 0.4072069, 0.8337874, 1.3427302, 1.2139695, 0.9078564, -0.53970945, -0.7470473, -0.0014159456, -0.070440054, -0.3150884, 0.79683787, 0.1866686, 0.3152356, 0.9030689, 1.7389241, 1.0581753, -0.055984434, -0.8454503, 0.0010267496, -0.23508406, 0.94164985, 0.9495547, 0.8009956, -0.09583616, 0.85608715, 1.2855154, -0.14575522, -0.013905983, 0.6523268, 0.56787366, 0.30498195, 0.64220476, 0.23978625, -0.39477193, 0.43975067, 0.28005219, 1.6039788, 0.88741946, 0.22517669, 0.00036287308, -0.0544672, 0.028767109, -0.1146435, -0.06532484, -0.21469285, 0.18074068, -0.56627774, 0.49974036, 0.36673203, 0.46764195, 1.440793, -0.13071907, 0.8523212, 1.4580666, 0.06808424, 1.5245452, 0.15965204, 0.4886467, 0.6139723, 0.28608748, 0.7039768, -0.56239223, 0.22377133, -0.2297858, -0.11832821, 0.44868863, 1.2171979, 0.80619115, -0.83279836, 1.3390201, 0.75297886, 0.9661379, 1.7182595, -0.69642925, 0.2306397, 0.5682098, 0.32555187, 0.33830023, 0.25921392, -0.006215073, 0.8860521, -0.24837768, 0.51009274, 0.5430784, 0.20140994, -0.29287696, -0.9077302, 0.23857188, -0.088727415, -0.06459826, 1.4518133, -0.8154869, -0.47043324, 0.8817584, 1.3409122, -0.9621422, 1.0016415, -0.01543808, 0.8353886, -0.61594963, 0.56259245, -0.35451752, 0.92112964, 0.85627526, -0.47701585, 0.76018417, 0.4075967, -0.09881002, -0.19595766, 0.51025665, 1.4286742, 0.7835537, 1.3763185, 0.57212996, -0.8230815, 0.06641221, -0.8332745, 0.63446105, 0.3014326, 1.3208789, -0.8072487, 0.044651303, 1.4059501, 0.72280073, 0.7396829, -0.13722949, 0.62077886, 0.9849955, -0.17122054, -0.37608695, 1.4409636, 0.17583844, -0.6357738, 0.8830989, -0.5354074, 0.7172385, 0.18584645, 0.07894969, -0.63415265, 1.5856309, 0.0743916, -0.6040094, 0.83163214, 0.9354354, -0.3582592, 0.24950719, 0.89661944, -0.9861468, ]
---------------------------------------------------------------------------------------------------------------------------------------------------------10
hide: [0.72069144, -0.5506201, -0.12867875, 1.5806957, 1.7873849, 1.0062543, -0.65612674, -0.17488813, 1.5405055, 0.3012128, 0.19439065, -0.64916754, 1.2852942, 1.148633, 0.2858249, 0.6487068, 0.03729856, 0.5133164, 1.0340325, 1.2317113, -0.6589353, -0.15788221, 0.22676194, 0.031609416, -0.1023674, 0.15116167, -0.6481986, 0.7355232, 1.3942767, 1.0263258, -0.11889072, -0.31065214, 0.7298196, 0.94939494, 0.21955402, 0.8330376, -0.63692534, 1.1069106, 0.6315521, 0.49797928, 0.010681987, 0.32380295, 1.4289039, 1.1991639, 0.25120714, 1.5085315, -0.14981794, 0.6826298, 0.6021558, 1.4513627, 1.0670899, 0.1952815, 0.4072069, 0.8837874, 1.3927301, 1.2639694, 0.9578564, -0.53970945, -0.7470473, 0.048584055, -0.070440054, -0.3150884, 0.8468379, 0.2366686, 0.3152356, 0.9030689, 1.7889241, 1.1081753, -0.005984433, -0.8454503, 0.0010267496, -0.23508406, 0.99164987, 0.9495547, 0.8009956, -0.09583616, 0.90608716, 1.3355154, -0.09575522, 0.036094017, 0.6523268, 0.61787367, 0.30498195, 0.64220476, 0.28978625, -0.39477193, 0.43975067, 0.28005219, 1.6539787, 0.88741946, 0.22517669, 0.00036287308, -0.0544672, 0.028767109, -0.0646435, -0.015324842, -0.16469285, 0.23074068, -0.56627774, 0.49974036, 0.41673204, 0.46764195, 1.490793, -0.13071907, 0.9023212, 1.5080665, 0.06808424, 1.5745451, 0.20965204, 0.5386467, 0.6139723, 0.3360875, 0.7539768, -0.56239223, 0.22377133, -0.2297858, -0.11832821, 0.44868863, 1.2671978, 0.85619116, -0.83279836, 1.3890201, 0.8029789, 1.0161378, 1.7682594, -0.69642925, 0.2306397, 0.61820984, 0.32555187, 0.38830024, 0.25921392, 0.043784928, 0.9360521, -0.24837768, 0.51009274, 0.5430784, 0.20140994, -0.29287696, -0.9077302, 0.23857188, -0.038727414, -0.014598262, 1.5018133, -0.8154869, -0.47043324, 0.9317584, 1.3909122, -0.9621422, 1.0516415, -0.01543808, 0.8853886, -0.61594963, 0.61259246, -0.3045175, 0.97112966, 0.9062753, -0.47701585, 0.8101842, 0.4075967, -0.048810016, -0.19595766, 0.51025665, 1.4786742, 0.7835537, 1.4263184, 0.57212996, -0.8230815, 0.06641221, -0.8332745, 0.63446105, 0.3014326, 1.3708788, -0.8072487, 0.094651304, 1.45595, 0.72280073, 0.7396829, -0.08722949, 0.6707789, 0.9849955, -0.17122054, -0.37608695, 1.4909636, 0.22583844, -0.6357738, 0.9330989, -0.5354074, 0.7672385, 0.18584645, 0.07894969, -0.63415265, 1.6356308, 0.0743916, -0.6040094, 0.83163214, 0.9354354, -0.3582592, 0.24950719, 0.89661944, -0.9861468, ]
---------------------------------------------------------------------------------------------------------------------------------------------------------11
hide: [0.72069144, -0.5506201, -0.07867876, 1.6306957, 1.8373848, 1.0562543, -0.65612674, -0.17488813, 1.5905055, 0.3012128, 0.19439065, -0.64916754, 1.3352941, 1.198633, 0.2858249, 0.6487068, 0.03729856, 0.5133164, 1.0840324, 1.2817112, -0.6589353, -0.15788221, 0.22676194, 0.031609416, -0.1023674, 0.15116167, -0.6481986, 0.7355232, 1.4442767, 1.0763258, -0.06889072, -0.31065214, 0.7298196, 0.99939495, 0.26955402, 0.8330376, -0.63692534, 1.1569105, 0.6815521, 0.49797928, 0.010681987, 0.32380295, 1.4789039, 1.2491639, 0.30120715, 1.5585314, -0.14981794, 0.6826298, 0.6521558, 1.5013627, 1.1170899, 0.1952815, 0.4072069, 0.9337874, 1.4427301, 1.3139694, 1.0078564, -0.53970945, -0.7470473, 0.098584056, -0.070440054, -0.3150884, 0.8968379, 0.2866686, 0.3152356, 0.9030689, 1.838924, 1.1581752, 0.044015568, -0.8454503, 0.0010267496, -0.23508406, 1.0416498, 0.9495547, 0.8009956, -0.09583616, 0.9560872, 1.3855153, -0.04575522, 0.08609402, 0.6523268, 0.6678737, 0.30498195, 0.64220476, 0.33978626, -0.39477193, 0.43975067, 0.28005219, 1.7039787, 0.88741946, 0.22517669, 0.00036287308, -0.0544672, 0.028767109, -0.0146435015, 0.03467516, -0.11469285, 0.28074068, -0.56627774, 0.49974036, 0.46673205, 0.46764195, 1.540793, -0.13071907, 0.95232123, 1.5580665, 0.06808424, 1.6245451, 0.25965205, 0.5886467, 0.6139723, 0.3860875, 0.80397683, -0.56239223, 0.22377133, -0.2297858, -0.11832821, 0.44868863, 1.3171978, 0.9061912, -0.83279836, 1.43902, 0.8529789, 1.0661378, 1.8182594, -0.69642925, 0.2306397, 0.66820985, 0.32555187, 0.43830025, 0.25921392, 0.09378493, 0.9860521, -0.24837768, 0.51009274, 0.5430784, 0.20140994, -0.29287696, -0.9077302, 0.23857188, 0.011272587, 0.03540174, 1.5518132, -0.8154869, -0.47043324, 0.9817584, 1.4409121, -0.9621422, 1.1016414, -0.01543808, 0.9353886, -0.61594963, 0.6625925, -0.2545175, 1.0211296, 0.9562753, -0.47701585, 0.8601842, 0.4075967, 0.0011899844, -0.19595766, 0.51025665, 1.5286741, 0.7835537, 1.4763184, 0.57212996, -0.8230815, 0.06641221, -0.8332745, 0.63446105, 0.3014326, 1.4208788, -0.8072487, 0.14465131, 1.50595, 0.72280073, 0.7396829, -0.03722949, 0.7207789, 0.9849955, -0.17122054, -0.37608695, 1.5409635, 0.27583843, -0.6357738, 0.9830989, -0.5354074, 0.8172385, 0.18584645, 0.07894969, -0.63415265, 1.6856308, 0.0743916, -0.6040094, 0.83163214, 0.9354354, -0.3582592, 0.24950719, 0.89661944, -0.9861468, ]
---------------------------------------------------------------------------------------------------------------------------------------------------------12
hide: [0.72069144, -0.5506201, -0.028678756, 1.6806957, 1.8873848, 1.1062542, -0.65612674, -0.17488813, 1.6405054, 0.3012128, 0.19439065, -0.64916754, 1.3852941, 1.2486329, 0.2858249, 0.6487068, 0.03729856, 0.5133164, 1.1340324, 1.3317112, -0.6589353, -0.15788221, 0.22676194, 0.031609416, -0.1023674, 0.15116167, -0.6481986, 0.7355232, 1.4442767, 1.1263257, -0.01889072, -0.31065214, 0.7298196, 1.049395, 0.26955402, 0.8330376, -0.63692534, 1.2069105, 0.7315521, 0.49797928, 0.010681987, 0.32380295, 1.5289038, 1.2991638, 0.35120717, 1.6085314, -0.14981794, 0.6826298, 0.7021558, 1.5513626, 1.1670898, 0.1952815, 0.4072069, 0.9837874, 1.49273, 1.3639693, 1.0578563, -0.53970945, -0.7470473, 0.14858405, -0.070440054, -0.3150884, 0.9468379, 0.3366686, 0.3152356, 0.9030689, 1.888924, 1.2081752, 0.09401557, -0.8454503, 0.0010267496, -0.23508406, 1.0916498, 0.9495547, 0.8009956, -0.09583616, 1.0060872, 1.4355153, 0.004244782, 0.13609402, 0.6523268, 0.7178737, 0.30498195, 0.64220476, 0.38978627, -0.39477193, 0.43975067, 0.28005219, 1.7539786, 0.88741946, 0.22517669, 0.00036287308, -0.0544672, 0.028767109, 0.0353565, 0.08467516, -0.11469285, 0.3307407, -0.56627774, 0.49974036, 0.51673204, 0.46764195, 1.5907929, -0.13071907, 1.0023212, 1.6080664, 0.06808424, 1.674545, 0.25965205, 0.6386467, 0.6139723, 0.43608752, 0.85397685, -0.56239223, 0.22377133, -0.2297858, -0.11832821, 0.44868863, 1.3671978, 0.9561912, -0.83279836, 1.48902, 0.9029789, 1.1161377, 1.8682593, -0.69642925, 0.2306397, 0.71820986, 0.32555187, 0.48830026, 0.25921392, 0.14378493, 1.0360521, -0.24837768, 0.51009274, 0.5430784, 0.20140994, -0.29287696, -0.9077302, 0.23857188, 0.061272588, 0.08540174, 1.6018132, -0.8154869, -0.47043324, 1.0317584, 1.4909121, -0.9621422, 1.1516414, -0.01543808, 0.98538864, -0.61594963, 0.7125925, -0.2545175, 1.0711296, 1.0062753, -0.47701585, 0.8601842, 0.4075967, 0.051189985, -0.19595766, 0.51025665, 1.5786741, 0.7835537, 1.5263183, 0.57212996, -0.8230815, 0.06641221, -0.8332745, 0.63446105, 0.3014326, 1.4708787, -0.8072487, 0.14465131, 1.5559499, 0.72280073, 0.7396829, 0.012770511, 0.7707789, 0.9849955, -0.17122054, -0.37608695, 1.5909635, 0.32583845, -0.6357738, 1.0330989, -0.5354074, 0.8672385, 0.18584645, 0.07894969, -0.63415265, 1.7356308, 0.0743916, -0.6040094, 0.83163214, 0.9354354, -0.3582592, 0.24950719, 0.89661944, -0.9861468, ]
---------------------------------------------------------------------------------------------------------------------------------------------------------13
hide: [0.72069144, -0.5506201, 0.021321245, 1.7306956, 1.9373847, 1.1562542, -0.65612674, -0.17488813, 1.6905054, 0.3012128, 0.19439065, -0.64916754, 1.435294, 1.2986329, 0.2858249, 0.6487068, 0.03729856, 0.5133164, 1.1840323, 1.3817111, -0.6589353, -0.15788221, 0.22676194, 0.031609416, -0.1023674, 0.15116167, -0.6481986, 0.7355232, 1.4442767, 1.1763257, 0.03110928, -0.31065214, 0.7298196, 1.0993949, 0.26955402, 0.8330376, -0.63692534, 1.2569104, 0.78155214, 0.49797928, 0.010681987, 0.32380295, 1.5789038, 1.3491638, 0.40120718, 1.6585313, -0.14981794, 0.6826298, 0.75215584, 1.6013626, 1.2170898, 0.1952815, 0.4072069, 1.0337874, 1.54273, 1.4139693, 1.1078563, -0.53970945, -0.7470473, 0.19858405, -0.070440054, -0.3150884, 0.9968379, 0.38666862, 0.3152356, 0.9030689, 1.938924, 1.2581751, 0.14401557, -0.8454503, 0.0010267496, -0.23508406, 1.1416497, 0.9495547, 0.8009956, -0.09583616, 1.0560871, 1.4855152, 0.054244783, 0.18609402, 0.6523268, 0.7678737, 0.30498195, 0.64220476, 0.4397863, -0.39477193, 0.43975067, 0.28005219, 1.8039786, 0.88741946, 0.22517669, 0.00036287308, -0.0544672, 0.028767109, 0.0853565, 0.13467516, -0.11469285, 0.3807407, -0.56627774, 0.49974036, 0.56673205, 0.46764195, 1.6407928, -0.13071907, 1.0523212, 1.6580664, 0.06808424, 1.724545, 0.25965205, 0.68864673, 0.6139723, 0.48608753, 0.90397686, -0.56239223, 0.22377133, -0.2297858, -0.11832821, 0.44868863, 1.4171977, 1.0061911, -0.83279836, 1.53902, 0.9529789, 1.1661377, 1.9182593, -0.69642925, 0.2306397, 0.7682099, 0.32555187, 0.5383003, 0.25921392, 0.19378492, 1.0860521, -0.24837768, 0.51009274, 0.5430784, 0.20140994, -0.29287696, -0.9077302, 0.23857188, 0.11127259, 0.13540174, 1.6518131, -0.8154869, -0.47043324, 1.0817584, 1.540912, -0.9621422, 1.2016413, -0.01543808, 1.0353886, -0.61594963, 0.7625925, -0.2545175, 1.1211295, 1.0562752, -0.47701585, 0.8601842, 0.4075967, 0.101189986, -0.19595766, 0.51025665, 1.628674, 0.7835537, 1.5763183, 0.57212996, -0.8230815, 0.06641221, -0.8332745, 0.63446105, 0.3014326, 1.5208787, -0.8072487, 0.14465131, 1.6059499, 0.72280073, 0.7396829, 0.062770516, 0.8207789, 0.9849955, -0.17122054, -0.37608695, 1.6409634, 0.37583846, -0.6357738, 1.0830989, -0.5354074, 0.91723853, 0.18584645, 0.07894969, -0.63415265, 1.7856307, 0.0743916, -0.6040094, 0.83163214, 0.9354354, -0.3582592, 0.24950719, 0.89661944, -0.9861468, ]
---------------------------------------------------------------------------------------------------------------------------------------------------------14
hide: [0.72069144, -0.5506201, 0.07132125, 1.7806956, 1.9873847, 1.2062541, -0.65612674, -0.17488813, 1.7405053, 0.3012128, 0.19439065, -0.64916754, 1.485294, 1.3486328, 0.2858249, 0.6487068, 0.03729856, 0.5133164, 1.2340323, 1.4317111, -0.6589353, -0.15788221, 0.22676194, 0.031609416, -0.1023674, 0.15116167, -0.6481986, 0.7355232, 1.4942766, 1.2263256, 0.081109285, -0.31065214, 0.7798196, 1.1493949, 0.31955403, 0.8330376, -0.63692534, 1.3069104, 0.83155215, 0.49797928, 0.010681987, 0.32380295, 1.6289037, 1.3991637, 0.4512072, 1.7085313, -0.14981794, 0.6826298, 0.80215585, 1.6513625, 1.2670897, 0.1952815, 0.4072069, 1.0837873, 1.5927299, 1.4639692, 1.1578562, -0.53970945, -0.7470473, 0.24858405, -0.070440054, -0.3150884, 1.0468379, 0.43666863, 0.3152356, 0.9030689, 1.9889239, 1.3081751, 0.19401556, -0.8454503, 0.0010267496, -0.23508406, 1.1916497, 0.9495547, 0.8009956, -0.09583616, 1.1060871, 1.5355152, 0.10424478, 0.23609401, 0.6523268, 0.8178737, 0.30498195, 0.64220476, 0.4897863, -0.39477193, 0.43975067, 0.28005219, 1.8539785, 0.88741946, 0.22517669, 0.00036287308, -0.0544672, 0.028767109, 0.1353565, 0.18467516, -0.064692855, 0.4307407, -0.56627774, 0.49974036, 0.61673206, 0.46764195, 1.6907928, -0.13071907, 1.1023211, 1.7080663, 0.06808424, 1.774545, 0.30965206, 0.73864675, 0.6139723, 0.5360875, 0.95397687, -0.56239223, 0.22377133, -0.2297858, -0.11832821, 0.44868863, 1.4671977, 1.0561911, -0.83279836, 1.5890199, 1.0029789, 1.2161376, 1.9682592, -0.69642925, 0.2306397, 0.8182099, 0.32555187, 0.5883003, 0.25921392, 0.24378492, 1.136052, -0.24837768, 0.51009274, 0.5430784, 0.20140994, -0.29287696, -0.9077302, 0.23857188, 0.16127259, 0.18540174, 1.7018131, -0.8154869, -0.47043324, 1.1317583, 1.590912, -0.9621422, 1.2516413, -0.01543808, 1.0853885, -0.61594963, 0.8125925, -0.2045175, 1.1711295, 1.1062752, -0.47701585, 0.9101842, 0.4075967, 0.15118998, -0.19595766, 0.51025665, 1.678674, 0.7835537, 1.6263182, 0.57212996, -0.8230815, 0.06641221, -0.8332745, 0.63446105, 0.3014326, 1.5708786, -0.8072487, 0.1946513, 1.6559498, 0.72280073, 0.7396829, 0.11277051, 0.8707789, 0.9849955, -0.17122054, -0.37608695, 1.6909634, 0.42583847, -0.6357738, 1.1330988, -0.5354074, 0.96723855, 0.18584645, 0.07894969, -0.63415265, 1.8356307, 0.0743916, -0.6040094, 0.83163214, 0.9354354, -0.3582592, 0.24950719, 0.89661944, -0.9861468, ]
---------------------------------------------------------------------------------------------------------------------------------------------------------15
hide: [0.72069144, -0.5506201, 0.121321246, 1.8306955, 2.0373847, 1.2562541, -0.65612674, -0.17488813, 1.7905053, 0.3012128, 0.19439065, -0.64916754, 1.5352939, 1.3986328, 0.2858249, 0.6487068, 0.03729856, 0.5133164, 1.2840322, 1.481711, -0.6589353, -0.15788221, 0.22676194, 0.031609416, -0.1023674, 0.15116167, -0.6481986, 0.7355232, 1.5442766, 1.2763256, 0.13110928, -0.31065214, 0.8298196, 1.1993948, 0.36955404, 0.8330376, -0.63692534, 1.3569103, 0.88155216, 0.49797928, 0.010681987, 0.32380295, 1.6789037, 1.4491637, 0.5012072, 1.7585312, -0.14981794, 0.6826298, 0.85215586, 1.7013625, 1.3170897, 0.1952815, 0.4072069, 1.1337873, 1.6427299, 1.5139692, 1.2078562, -0.53970945, -0.7470473, 0.29858404, -0.070440054, -0.3150884, 1.0968379, 0.48666865, 0.3152356, 0.9030689, 2.038924, 1.358175, 0.24401556, -0.8454503, 0.0010267496, -0.23508406, 1.2416496, 0.9495547, 0.8009956, -0.09583616, 1.156087, 1.5855151, 0.15424478, 0.286094, 0.6523268, 0.8678737, 0.30498195, 0.64220476, 0.5397863, -0.39477193, 0.43975067, 0.28005219, 1.9039785, 0.88741946, 0.22517669, 0.00036287308, -0.0544672, 0.028767109, 0.1853565, 0.23467515, -0.014692854, 0.48074073, -0.56627774, 0.49974036, 0.6667321, 0.46764195, 1.7407928, -0.13071907, 1.1523211, 1.7580663, 0.06808424, 1.8245449, 0.35965207, 0.78864676, 0.6139723, 0.5860875, 1.0039768, -0.56239223, 0.22377133, -0.2297858, -0.11832821, 0.44868863, 1.5171976, 1.106191, -0.83279836, 1.6390198, 1.0529789, 1.2661376, 2.0182593, -0.69642925, 0.2306397, 0.8682099, 0.32555187, 0.6383003, 0.25921392, 0.29378492, 1.186052, -0.24837768, 0.51009274, 0.5430784, 0.20140994, -0.29287696, -0.9077302, 0.23857188, 0.21127258, 0.23540173, 1.751813, -0.8154869, -0.47043324, 1.1817583, 1.6409119, -0.9621422, 1.3016412, -0.01543808, 1.1353885, -0.61594963, 0.8625925, -0.1545175, 1.2211294, 1.1562752, -0.47701585, 0.9601842, 0.4075967, 0.20118998, -0.19595766, 0.51025665, 1.7286739, 0.7835537, 1.6763182, 0.57212996, -0.8230815, 0.06641221, -0.8332745, 0.63446105, 0.3014326, 1.6208786, -0.8072487, 0.2446513, 1.7059498, 0.72280073, 0.7396829, 0.16277051, 0.92077893, 0.9849955, -0.17122054, -0.37608695, 1.7409633, 0.47583848, -0.6357738, 1.1830988, -0.5354074, 1.0172385, 0.18584645, 0.07894969, -0.63415265, 1.8856306, 0.0743916, -0.6040094, 0.83163214, 0.9354354, -0.3582592, 0.24950719, 0.89661944, -0.9861468, ]
---------------------------------------------------------------------------------------------------------------------------------------------------------16
hide: [0.72069144, -0.5506201, 0.17132124, 1.8806955, 2.0873847, 1.306254, -0.65612674, -0.17488813, 1.8405052, 0.3012128, 0.19439065, -0.64916754, 1.5852939, 1.4486327, 0.2858249, 0.6487068, 0.03729856, 0.5133164, 1.3340322, 1.531711, -0.6589353, -0.15788221, 0.22676194, 0.031609416, -0.1023674, 0.15116167, -0.6481986, 0.7355232, 1.5942765, 1.3263255, 0.18110928, -0.31065214, 0.87981963, 1.2493948, 0.41955405, 0.8330376, -0.63692534, 1.4069103, 0.9315522, 0.49797928, 0.010681987, 0.32380295, 1.7289037, 1.4991636, 0.5512072, 1.8085312, -0.14981794, 0.6826298, 0.9021559, 1.7513624, 1.3670896, 0.1952815, 0.4072069, 1.1837872, 1.6927298, 1.5639691, 1.2578561, -0.53970945, -0.7470473, 0.34858406, -0.070440054, -0.3150884, 1.1468378, 0.53666866, 0.3152356, 0.9030689, 2.088924, 1.408175, 0.29401556, -0.8454503, 0.0010267496, -0.23508406, 1.2916496, 0.9495547, 0.8009956, -0.09583616, 1.206087, 1.6355151, 0.20424478, 0.33609402, 0.6523268, 0.91787374, 0.30498195, 0.64220476, 0.5897863, -0.39477193, 0.43975067, 0.28005219, 1.9539784, 0.88741946, 0.22517669, 0.00036287308, -0.0544672, 0.028767109, 0.2353565, 0.28467515, 0.035307147, 0.53074074, -0.56627774, 0.49974036, 0.7167321, 0.46764195, 1.7907927, -0.13071907, 1.202321, 1.8080662, 0.06808424, 1.8745449, 0.40965208, 0.83864677, 0.6139723, 0.63608754, 1.0539768, -0.56239223, 0.22377133, -0.2297858, -0.11832821, 0.44868863, 1.5671976, 1.156191, -0.83279836, 1.6890198, 1.1029788, 1.3161376, 2.0682592, -0.69642925, 0.2306397, 0.9182099, 0.32555187, 0.6883003, 0.25921392, 0.34378493, 1.2360519, -0.24837768, 0.51009274, 0.5430784, 0.20140994, -0.29287696, -0.9077302, 0.23857188, 0.26127258, 0.28540173, 1.801813, -0.8154869, -0.47043324, 1.2317582, 1.6909119, -0.9621422, 1.3516412, -0.01543808, 1.1853884, -0.61594963, 0.91259253, -0.104517505, 1.2711294, 1.2062751, -0.47701585, 1.0101842, 0.4075967, 0.25118998, -0.19595766, 0.51025665, 1.7786739, 0.7835537, 1.7263181, 0.57212996, -0.8230815, 0.06641221, -0.8332745, 0.63446105, 0.3014326, 1.6708785, -0.8072487, 0.2946513, 1.7559497, 0.72280073, 0.7396829, 0.2127705, 0.97077894, 0.9849955, -0.17122054, -0.37608695, 1.7909633, 0.5258385, -0.6357738, 1.2330987, -0.5354074, 1.0672385, 0.18584645, 0.07894969, -0.63415265, 1.9356306, 0.0743916, -0.6040094, 0.83163214, 0.9354354, -0.3582592, 0.24950719, 0.89661944, -0.9861468, ]
---------------------------------------------------------------------------------------------------------------------------------------------------------17
hide: [0.72069144, -0.5506201, 0.22132124, 1.9306954, 2.1373847, 1.356254, -0.65612674, -0.17488813, 1.8905052, 0.3012128, 0.19439065, -0.64916754, 1.6352938, 1.4986327, 0.2858249, 0.6487068, 0.03729856, 0.5133164, 1.3840321, 1.5817109, -0.6589353, -0.15788221, 0.22676194, 0.031609416, -0.1023674, 0.15116167, -0.6481986, 0.7355232, 1.6442765, 1.3763255, 0.23110928, -0.31065214, 0.87981963, 1.2993947, 0.46955407, 0.8330376, -0.63692534, 1.4569103, 0.9815522, 0.49797928, 0.010681987, 0.32380295, 1.7789036, 1.5491636, 0.6012072, 1.8585311, -0.14981794, 0.6826298, 0.9521559, 1.8013624, 1.4170896, 0.1952815, 0.4072069, 1.2337872, 1.7427298, 1.6139691, 1.3078561, -0.53970945, -0.7470473, 0.39858407, -0.070440054, -0.3150884, 1.1968378, 0.58666867, 0.3152356, 0.9030689, 2.138924, 1.458175, 0.34401557, -0.8454503, 0.0010267496, -0.23508406, 1.3416495, 0.9495547, 0.8009956, -0.09583616, 1.256087, 1.685515, 0.25424477, 0.38609403, 0.6523268, 0.96787375, 0.30498195, 0.64220476, 0.6397863, -0.39477193, 0.43975067, 0.28005219, 2.0039785, 0.88741946, 0.22517669, 0.00036287308, -0.0544672, 0.028767109, 0.2853565, 0.33467516, 0.08530715, 0.58074075, -0.56627774, 0.49974036, 0.7667321, 0.46764195, 1.8407927, -0.13071907, 1.252321, 1.8580662, 0.06808424, 1.9245448, 0.4596521, 0.8886468, 0.6139723, 0.68608755, 1.1039767, -0.56239223, 0.22377133, -0.2297858, -0.11832821, 0.44868863, 1.6171975, 1.206191, -0.83279836, 1.7390198, 1.1529788, 1.3661375, 2.1182592, -0.69642925, 0.2306397, 0.9682099, 0.32555187, 0.7383003, 0.25921392, 0.39378494, 1.2860519, -0.24837768, 0.51009274, 0.5430784, 0.20140994, -0.29287696, -0.9077302, 0.23857188, 0.3112726, 0.33540174, 1.851813, -0.8154869, -0.47043324, 1.2817582, 1.7409118, -0.9621422, 1.4016411, -0.01543808, 1.2353884, -0.61594963, 0.96259254, -0.054517504, 1.3211293, 1.256275, -0.47701585, 1.0601841, 0.4075967, 0.30119, -0.19595766, 0.51025665, 1.8286738, 0.7835537, 1.7763181, 0.57212996, -0.8230815, 0.06641221, -0.8332745, 0.63446105, 0.3014326, 1.7208785, -0.8072487, 0.3446513, 1.8059497, 0.72280073, 0.7396829, 0.2627705, 1.0207789, 0.9849955, -0.17122054, -0.37608695, 1.8409632, 0.5758385, -0.6357738, 1.2830987, -0.5354074, 1.1172384, 0.18584645, 0.07894969, -0.63415265, 1.9856305, 0.0743916, -0.6040094, 0.83163214, 0.9354354, -0.3582592, 0.24950719, 0.89661944, -0.9861468, ]
---------------------------------------------------------------------------------------------------------------------------------------------------------18
hide: [0.72069144, -0.5506201, 0.27132124, 1.9806954, 2.1873846, 1.4062539, -0.65612674, -0.17488813, 1.9405051, 0.3012128, 0.19439065, -0.64916754, 1.6852938, 1.5486326, 0.2858249, 0.6487068, 0.03729856, 0.5133164, 1.4340321, 1.6317109, -0.6589353, -0.15788221, 0.22676194, 0.031609416, -0.1023674, 0.15116167, -0.6481986, 0.7355232, 1.6942765, 1.4263254, 0.28110927, -0.31065214, 0.87981963, 1.3493947, 0.5195541, 0.8330376, -0.63692534, 1.5069102, 1.0315522, 0.49797928, 0.010681987, 0.32380295, 1.8289036, 1.5991635, 0.6512072, 1.9085311, -0.14981794, 0.6826298, 1.0021559, 1.8513623, 1.4670895, 0.1952815, 0.4072069, 1.2837871, 1.7927297, 1.663969, 1.357856, -0.53970945, -0.7470473, 0.44858408, -0.070440054, -0.3150884, 1.2468377, 0.6366687, 0.3152356, 0.9030689, 2.1889238, 1.5081749, 0.39401558, -0.8454503, 0.0010267496, -0.23508406, 1.3916495, 0.9495547, 0.8009956, -0.09583616, 1.3060869, 1.735515, 0.3042448, 0.43609405, 0.6523268, 1.0178738, 0.30498195, 0.64220476, 0.6897863, -0.39477193, 0.43975067, 0.28005219, 2.0539784, 0.88741946, 0.22517669, 0.00036287308, -0.0544672, 0.028767109, 0.3353565, 0.38467517, 0.13530715, 0.63074076, -0.56627774, 0.49974036, 0.8167321, 0.46764195, 1.8907926, -0.13071907, 1.302321, 1.9080662, 0.06808424, 1.9745448, 0.5096521, 0.9386468, 0.6139723, 0.73608756, 1.1539767, -0.56239223, 0.22377133, -0.2297858, -0.11832821, 0.44868863, 1.6671975, 1.2561909, -0.83279836, 1.7890197, 1.2029787, 1.4161375, 2.1682591, -0.69642925, 0.2306397, 1.0182099, 0.32555187, 0.78830034, 0.25921392, 0.44378495, 1.3360518, -0.24837768, 0.51009274, 0.5430784, 0.20140994, -0.29287696, -0.9077302, 0.23857188, 0.3612726, 0.38540176, 1.9018129, -0.8154869, -0.47043324, 1.3317581, 1.7909118, -0.9621422, 1.4516411, -0.01543808, 1.2853884, -0.61594963, 1.0125926, -0.004517503, 1.3711293, 1.306275, -0.47701585, 1.1101841, 0.4075967, 0.35119, -0.19595766, 0.51025665, 1.8786738, 0.7835537, 1.826318, 0.57212996, -0.8230815, 0.06641221, -0.8332745, 0.63446105, 0.3014326, 1.7708784, -0.8072487, 0.39465132, 1.8559496, 0.72280073, 0.7396829, 0.31277052, 1.0707788, 0.9849955, -0.17122054, -0.37608695, 1.8909632, 0.6258385, -0.6357738, 1.3330986, -0.5354074, 1.1672384, 0.18584645, 0.07894969, -0.63415265, 2.0356305, 0.0743916, -0.6040094, 0.83163214, 0.9354354, -0.3582592, 0.24950719, 0.89661944, -0.9861468, ]
---------------------------------------------------------------------------------------------------------------------------------------------------------19
hide: [0.72069144, -0.5506201, 0.32132125, 2.0306954, 2.2373846, 1.4562539, -0.65612674, -0.17488813, 1.9905051, 0.3012128, 0.19439065, -0.64916754, 1.7352937, 1.5986326, 0.2858249, 0.6487068, 0.03729856, 0.5133164, 1.484032, 1.6817108, -0.6589353, -0.15788221, 0.22676194, 0.031609416, -0.1023674, 0.15116167, -0.6481986, 0.7355232, 1.7442764, 1.4763254, 0.3311093, -0.31065214, 0.87981963, 1.3993946, 0.5695541, 0.8330376, -0.63692534, 1.5569102, 1.0815521, 0.49797928, 0.010681987, 0.32380295, 1.8789035, 1.6491635, 0.7012072, 1.958531, -0.14981794, 0.6826298, 1.0521559, 1.9013623, 1.5170895, 0.1952815, 0.4072069, 1.3337871, 1.8427297, 1.713969, 1.407856, -0.53970945, -0.7470473, 0.4985841, -0.070440054, -0.3150884, 1.2968377, 0.6866687, 0.3152356, 0.9030689, 2.2389238, 1.5581748, 0.4440156, -0.8454503, 0.0010267496, -0.23508406, 1.4416494, 0.9495547, 0.8009956, -0.09583616, 1.3560869, 1.785515, 0.3542448, 0.48609406, 0.6523268, 1.0678737, 0.30498195, 0.64220476, 0.7397863, -0.39477193, 0.43975067, 0.28005219, 2.1039784, 0.88741946, 0.22517669, 0.00036287308, -0.0544672, 0.028767109, 0.38535652, 0.4346752, 0.18530715, 0.6807408, -0.56627774, 0.49974036, 0.8667321, 0.46764195, 1.9407926, -0.13071907, 1.3523209, 1.9580661, 0.06808424, 2.0245447, 0.5596521, 0.9886468, 0.6139723, 0.7860876, 1.2039766, -0.56239223, 0.22377133, -0.2297858, -0.11832821, 0.44868863, 1.7171974, 1.3061908, -0.83279836, 1.8390197, 1.2529787, 1.4661374, 2.218259, -0.69642925, 0.2306397, 1.0682099, 0.32555187, 0.83830035, 0.25921392, 0.49378496, 1.3860518, -0.24837768, 0.51009274, 0.5430784, 0.20140994, -0.29287696, -0.9077302, 0.23857188, 0.41127262, 0.43540177, 1.9518129, -0.8154869, -0.47043324, 1.3817581, 1.8409117, -0.9621422, 1.501641, -0.01543808, 1.3353883, -0.61594963, 1.0625925, 0.045482498, 1.4211292, 1.356275, -0.47701585, 1.160184, 0.4075967, 0.40119, -0.19595766, 0.51025665, 1.9286737, 0.7835537, 1.876318, 0.57212996, -0.8230815, 0.06641221, -0.8332745, 0.63446105, 0.3014326, 1.8208784, -0.8072487, 0.44465134, 1.9059496, 0.72280073, 0.7396829, 0.36277053, 1.1207788, 0.9849955, -0.17122054, -0.37608695, 1.9409631, 0.67583853, -0.6357738, 1.3830986, -0.5354074, 1.2172383, 0.18584645, 0.07894969, -0.63415265, 2.0856304, 0.0743916, -0.6040094, 0.83163214, 0.9354354, -0.3582592, 0.24950719, 0.89661944, -0.9861468, ]
---------------------------------------------------------------------------------------------------------------------------------------------------------20
hide: [0.72069144, -0.5506201, 0.37132126, 2.0806954, 2.2873845, 1.5062538, -0.65612674, -0.17488813, 2.0405052, 0.3012128, 0.19439065, -0.64916754, 1.7852937, 1.6486325, 0.2858249, 0.6487068, 0.03729856, 0.5133164, 1.534032, 1.7317108, -0.6589353, -0.15788221, 0.22676194, 0.031609416, -0.1023674, 0.15116167, -0.6481986, 0.7355232, 1.7942764, 1.5263253, 0.3811093, -0.31065214, 0.87981963, 1.4493946, 0.6195541, 0.8330376, -0.63692534, 1.6069101, 1.1315521, 0.49797928, 0.010681987, 0.32380295, 1.9289035, 1.6991634, 0.75120723, 2.008531, -0.14981794, 0.6826298, 1.1021558, 1.9513623, 1.5670894, 0.1952815, 0.4072069, 1.383787, 1.8927296, 1.763969, 1.4578559, -0.53970945, -0.7470473, 0.5485841, -0.070440054, -0.3150884, 1.3468376, 0.7366687, 0.3152356, 0.9030689, 2.2889237, 1.6081748, 0.4940156, -0.8454503, 0.0010267496, -0.23508406, 1.4916494, 0.9495547, 0.8009956, -0.09583616, 1.4060868, 1.8355149, 0.4042448, 0.53609407, 0.6523268, 1.1178737, 0.30498195, 0.64220476, 0.78978634, -0.39477193, 0.43975067, 0.28005219, 2.1539783, 0.88741946, 0.22517669, 0.00036287308, -0.0544672, 0.028767109, 0.43535653, 0.4846752, 0.23530714, 0.7307408, -0.56627774, 0.49974036, 0.91673213, 0.46764195, 1.9907925, -0.13071907, 1.4023209, 2.0080662, 0.06808424, 2.0745447, 0.6096521, 1.0386468, 0.6139723, 0.8360876, 1.2539766, -0.56239223, 0.22377133, -0.2297858, -0.11832821, 0.44868863, 1.7671974, 1.3561908, -0.83279836, 1.8890196, 1.3029786, 1.5161374, 2.268259, -0.69642925, 0.2306397, 1.1182098, 0.32555187, 0.88830036, 0.25921392, 0.543785, 1.4360517, -0.24837768, 0.51009274, 0.5430784, 0.20140994, -0.29287696, -0.9077302, 0.23857188, 0.46127263, 0.48540178, 2.001813, -0.8154869, -0.47043324, 1.431758, 1.8909117, -0.9621422, 1.551641, -0.01543808, 1.3853883, -0.61594963, 1.1125925, 0.0954825, 1.4711292, 1.4062749, -0.47701585, 1.210184, 0.4075967, 0.45119002, -0.19595766, 0.51025665, 1.9786737, 0.7835537, 1.9263179, 0.57212996, -0.8230815, 0.06641221, -0.8332745, 0.63446105, 0.3014326, 1.8708783, -0.8072487, 0.49465135, 1.9559495, 0.72280073, 0.7396829, 0.41277054, 1.1707788, 0.9849955, -0.17122054, -0.37608695, 1.9909631, 0.72583854, -0.6357738, 1.4330986, -0.5354074, 1.2672383, 0.18584645, 0.07894969, -0.63415265, 2.1356304, 0.0743916, -0.6040094, 0.83163214, 0.9354354, -0.3582592, 0.24950719, 0.89661944, -0.9861468, ]
---------------------------------------------------------------------------------------------------------------------------------------------------------21
hide: [0.72069144, -0.5506201, 0.42132127, 2.1306953, 2.3373845, 1.5562538, -0.65612674, -0.17488813, 2.0905051, 0.3012128, 0.19439065, -0.64916754, 1.8352937, 1.6986325, 0.2858249, 0.6487068, 0.03729856, 0.5133164, 1.5840319, 1.7817107, -0.6589353, -0.15788221, 0.22676194, 0.031609416, -0.1023674, 0.15116167, -0.6481986, 0.7355232, 1.8442763, 1.5763253, 0.4311093, -0.31065214, 0.87981963, 1.4993945, 0.6695541, 0.8330376, -0.63692534, 1.6569101, 1.181552, 0.49797928, 0.010681987, 0.32380295, 1.9789034, 1.7491634, 0.80120724, 2.058531, -0.14981794, 0.6826298, 1.1521558, 2.0013623, 1.6170894, 0.1952815, 0.4072069, 1.433787, 1.9427296, 1.8139689, 1.5078559, -0.53970945, -0.7470473, 0.5985841, -0.070440054, -0.3150884, 1.3968376, 0.7866687, 0.3152356, 0.9030689, 2.3389237, 1.6581748, 0.5440156, -0.8454503, 0.0010267496, -0.23508406, 1.5416493, 0.9495547, 0.8009956, -0.09583616, 1.4560868, 1.8855149, 0.45424482, 0.5860941, 0.6523268, 1.1678736, 0.30498195, 0.64220476, 0.83978635, -0.39477193, 0.43975067, 0.28005219, 2.2039783, 0.88741946, 0.22517669, 0.00036287308, -0.0544672, 0.028767109, 0.48535654, 0.5346752, 0.28530714, 0.7807408, -0.56627774, 0.49974036, 0.96673214, 0.46764195, 2.0407925, -0.13071907, 1.4523208, 2.0580661, 0.06808424, 2.1245446, 0.6596521, 1.0886468, 0.6139723, 0.8860876, 1.3039765, -0.56239223, 0.22377133, -0.2297858, -0.11832821, 0.44868863, 1.8171973, 1.4061908, -0.83279836, 1.9390196, 1.3529786, 1.5661373, 2.318259, -0.69642925, 0.2306397, 1.1682098, 0.32555187, 0.9383004, 0.25921392, 0.593785, 1.4860517, -0.24837768, 0.51009274, 0.5430784, 0.20140994, -0.29287696, -0.9077302, 0.23857188, 0.5112726, 0.53540176, 2.051813, -0.8154869, -0.47043324, 1.481758, 1.9409117, -0.9621422, 1.6016409, -0.01543808, 1.4353882, -0.61594963, 1.1625924, 0.1454825, 1.5211291, 1.4562749, -0.47701585, 1.2601839, 0.4075967, 0.50119, -0.19595766, 0.51025665, 2.0286736, 0.7835537, 1.9763179, 0.57212996, -0.8230815, 0.06641221, -0.8332745, 0.63446105, 0.3014326, 1.9208783, -0.8072487, 0.5446513, 2.0059495, 0.72280073, 0.7396829, 0.46277055, 1.2207787, 0.9849955, -0.17122054, -0.37608695, 2.0409632, 0.77583855, -0.6357738, 1.4830985, -0.5354074, 1.3172382, 0.18584645, 0.07894969, -0.63415265, 2.1856303, 0.0743916, -0.6040094, 0.83163214, 0.9354354, -0.3582592, 0.24950719, 0.89661944, -0.9861468, ]
---------------------------------------------------------------------------------------------------------------------------------------------------------22
hide: [0.72069144, -0.5506201, 0.47132128, 2.1806953, 2.3873844, 1.6062537, -0.65612674, -0.17488813, 2.140505, 0.3012128, 0.19439065, -0.64916754, 1.8852936, 1.7486324, 0.2858249, 0.6487068, 0.03729856, 0.5133164, 1.6340319, 1.8317107, -0.6589353, -0.15788221, 0.22676194, 0.031609416, -0.1023674, 0.15116167, -0.6481986, 0.7355232, 1.8942763, 1.6263252, 0.48110932, -0.31065214, 0.87981963, 1.5493945, 0.7195541, 0.8330376, -0.63692534, 1.70691, 1.231552, 0.49797928, 0.010681987, 0.32380295, 2.0289035, 1.7991633, 0.85120726, 2.108531, -0.14981794, 0.6826298, 1.2021557, 2.0513623, 1.6670893, 0.1952815, 0.4072069, 1.483787, 1.9927295, 1.8639688, 1.5578558, -0.53970945, -0.7470473, 0.6485841, -0.070440054, -0.3150884, 1.4468375, 0.8366687, 0.3152356, 0.9030689, 2.3889236, 1.7081747, 0.5940156, -0.8454503, 0.0010267496, -0.23508406, 1.5916493, 0.9495547, 0.8009956, -0.09583616, 1.5060867, 1.9355148, 0.5042448, 0.6360941, 0.6523268, 1.2178736, 0.30498195, 0.64220476, 0.88978636, -0.39477193, 0.43975067, 0.28005219, 2.2539783, 0.88741946, 0.22517669, 0.00036287308, -0.0544672, 0.028767109, 0.5353565, 0.5846752, 0.33530715, 0.8307408, -0.56627774, 0.49974036, 1.0167321, 0.46764195, 2.0907924, -0.13071907, 1.5023208, 2.108066, 0.06808424, 2.1745446, 0.7096521, 1.1386467, 0.6139723, 0.9360876, 1.3539765, -0.56239223, 0.22377133, -0.2297858, -0.11832821, 0.44868863, 1.8671973, 1.4561907, -0.83279836, 1.9890195, 1.4029785, 1.6161373, 2.368259, -0.69642925, 0.2306397, 1.2182097, 0.32555187, 0.9883004, 0.25921392, 0.643785, 1.5360516, -0.24837768, 0.51009274, 0.5430784, 0.20140994, -0.29287696, -0.9077302, 0.23857188, 0.5612726, 0.5854018, 2.1018128, -0.8154869, -0.47043324, 1.531758, 1.9909116, -0.9621422, 1.6516409, -0.01543808, 1.4853882, -0.61594963, 1.2125924, 0.19548249, 1.5711291, 1.5062748, -0.47701585, 1.3101839, 0.4075967, 0.55119, -0.19595766, 0.51025665, 2.0786736, 0.7835537, 2.0263178, 0.57212996, -0.8230815, 0.06641221, -0.8332745, 0.63446105, 0.3014326, 1.9708782, -0.8072487, 0.59465134, 2.0559494, 0.72280073, 0.7396829, 0.51277053, 1.2707787, 0.9849955, -0.17122054, -0.37608695, 2.0909631, 0.82583857, -0.6357738, 1.5330985, -0.5354074, 1.3672382, 0.18584645, 0.07894969, -0.63415265, 2.2356303, 0.0743916, -0.6040094, 0.83163214, 0.9354354, -0.3582592, 0.24950719, 0.89661944, -0.9861468, ]
---------------------------------------------------------------------------------------------------------------------------------------------------------23
hide: [0.72069144, -0.5506201, 0.5213213, 2.2306952, 2.4373844, 1.6562537, -0.65612674, -0.17488813, 2.190505, 0.3012128, 0.19439065, -0.64916754, 1.9352936, 1.7986324, 0.2858249, 0.6487068, 0.03729856, 0.5133164, 1.6840318, 1.8817106, -0.6589353, -0.15788221, 0.22676194, 0.031609416, -0.1023674, 0.15116167, -0.6481986, 0.7355232, 1.8942763, 1.6763252, 0.53110933, -0.31065214, 0.87981963, 1.5993944, 0.7195541, 0.8330376, -0.63692534, 1.75691, 1.281552, 0.49797928, 0.010681987, 0.32380295, 2.0789034, 1.8491633, 0.90120727, 2.158531, -0.14981794, 0.6826298, 1.2521557, 2.1013622, 1.7170893, 0.1952815, 0.4072069, 1.5337869, 2.0427296, 1.9139688, 1.6078558, -0.53970945, -0.7470473, 0.69858414, -0.070440054, -0.3150884, 1.4968375, 0.88666874, 0.3152356, 0.9030689, 2.4389236, 1.7581747, 0.6440156, -0.8454503, 0.0010267496, -0.23508406, 1.6416492, 0.9495547, 0.8009956, -0.09583616, 1.5560867, 1.9855148, 0.5542448, 0.6860941, 0.6523268, 1.2678735, 0.30498195, 0.64220476, 0.9397864, -0.39477193, 0.43975067, 0.28005219, 2.3039782, 0.88741946, 0.22517669, 0.00036287308, -0.0544672, 0.028767109, 0.58535653, 0.6346752, 0.33530715, 0.8807408, -0.56627774, 0.49974036, 1.066732, 0.46764195, 2.1407924, -0.13071907, 1.5523207, 2.158066, 0.06808424, 2.2245445, 0.7096521, 1.1886467, 0.6139723, 0.9860876, 1.4039764, -0.56239223, 0.22377133, -0.2297858, -0.11832821, 0.44868863, 1.9171972, 1.5061907, -0.83279836, 2.0390196, 1.4529785, 1.6661372, 2.418259, -0.69642925, 0.2306397, 1.2682097, 0.32555187, 1.0383004, 0.25921392, 0.693785, 1.5860516, -0.24837768, 0.51009274, 0.5430784, 0.20140994, -0.29287696, -0.9077302, 0.23857188, 0.61127263, 0.6354018, 2.1518128, -0.8154869, -0.47043324, 1.5817579, 2.0409117, -0.9621422, 1.7016408, -0.01543808, 1.5353881, -0.61594963, 1.2625923, 0.19548249, 1.621129, 1.5562748, -0.47701585, 1.3101839, 0.4075967, 0.60119003, -0.19595766, 0.51025665, 2.1286736, 0.7835537, 2.0763178, 0.57212996, -0.8230815, 0.06641221, -0.8332745, 0.63446105, 0.3014326, 2.0208783, -0.8072487, 0.59465134, 2.1059494, 0.72280073, 0.7396829, 0.56277055, 1.3207786, 0.9849955, -0.17122054, -0.37608695, 2.140963, 0.8758386, -0.6357738, 1.5830984, -0.5354074, 1.4172381, 0.18584645, 0.07894969, -0.63415265, 2.2856302, 0.0743916, -0.6040094, 0.83163214, 0.9354354, -0.3582592, 0.24950719, 0.89661944, -0.9861468, ]
---------------------------------------------------------------------------------------------------------------------------------------------------------24
hide: [0.72069144, -0.5506201, 0.5713213, 2.2806952, 2.4873843, 1.7062536, -0.65612674, -0.17488813, 2.240505, 0.3012128, 0.19439065, -0.64916754, 1.9852935, 1.8486323, 0.2858249, 0.6487068, 0.03729856, 0.5133164, 1.7340318, 1.9317106, -0.6589353, -0.15788221, 0.22676194, 0.031609416, -0.1023674, 0.15116167, -0.6481986, 0.7355232, 1.8942763, 1.7263252, 0.58110934, -0.31065214, 0.87981963, 1.6493944, 0.7195541, 0.8330376, -0.63692534, 1.8069099, 1.3315519, 0.49797928, 0.010681987, 0.32380295, 2.1289034, 1.8991632, 0.9512073, 2.208531, -0.14981794, 0.6826298, 1.3021556, 2.1513622, 1.7670892, 0.1952815, 0.4072069, 1.5837868, 2.0927296, 1.9639688, 1.6578557, -0.53970945, -0.7470473, 0.74858415, -0.070440054, -0.3150884, 1.5468374, 0.93666875, 0.3152356, 0.9030689, 2.4889235, 1.8081746, 0.6940156, -0.8454503, 0.0010267496, -0.23508406, 1.6916492, 0.9495547, 0.8009956, -0.09583616, 1.6060866, 2.0355148, 0.6042448, 0.7360941, 0.6523268, 1.3178735, 0.30498195, 0.64220476, 0.9897864, -0.39477193, 0.43975067, 0.28005219, 2.3539782, 0.88741946, 0.22517669, 0.00036287308, -0.0544672, 0.028767109, 0.63535655, 0.6846752, 0.33530715, 0.93074083, -0.56627774, 0.49974036, 1.116732, 0.46764195, 2.1907923, -0.13071907, 1.6023207, 2.208066, 0.06808424, 2.2745445, 0.7096521, 1.2386466, 0.6139723, 1.0360876, 1.4539764, -0.56239223, 0.22377133, -0.2297858, -0.11832821, 0.44868863, 1.9671972, 1.5561906, -0.83279836, 2.0890195, 1.5029784, 1.7161372, 2.4682589, -0.69642925, 0.2306397, 1.3182096, 0.32555187, 1.0883003, 0.25921392, 0.743785, 1.6360515, -0.24837768, 0.51009274, 0.5430784, 0.20140994, -0.29287696, -0.9077302, 0.23857188, 0.66127264, 0.6854018, 2.2018127, -0.8154869, -0.47043324, 1.6317579, 2.0909116, -0.9621422, 1.7516408, -0.01543808, 1.5853881, -0.61594963, 1.3125923, 0.19548249, 1.671129, 1.6062747, -0.47701585, 1.3101839, 0.4075967, 0.65119004, -0.19595766, 0.51025665, 2.1786735, 0.7835537, 2.1263177, 0.57212996, -0.8230815, 0.06641221, -0.8332745, 0.63446105, 0.3014326, 2.0708783, -0.8072487, 0.59465134, 2.1559494, 0.72280073, 0.7396829, 0.61277056, 1.3707786, 0.9849955, -0.17122054, -0.37608695, 2.190963, 0.9258386, -0.6357738, 1.6330984, -0.5354074, 1.4672381, 0.18584645, 0.07894969, -0.63415265, 2.3356302, 0.0743916, -0.6040094, 0.83163214, 0.9354354, -0.3582592, 0.24950719, 0.89661944, -0.9861468, ]
---------------------------------------------------------------------------------------------------------------------------------------------------------25
hide: [0.72069144, -0.5506201, 0.5963213, 2.3056953, 2.5123844, 1.7312536, -0.65612674, -0.17488813, 2.265505, 0.3012128, 0.19439065, -0.64916754, 2.0102935, 1.8736323, 0.2858249, 0.6487068, 0.03729856, 0.5133164, 1.7590318, 1.9567106, -0.6589353, -0.15788221, 0.22676194, 0.031609416, -0.1023674, 0.15116167, -0.6481986, 0.7355232, 1.9192762, 1.7513251, 0.6061093, -0.31065214, 0.9048196, 1.6743944, 0.7445541, 0.8330376, -0.63692534, 1.8319099, 1.3565519, 0.49797928, 0.010681987, 0.32380295, 2.1539035, 1.9241632, 0.97620726, 2.233531, -0.14981794, 0.6826298, 1.3271556, 2.1763623, 1.7920892, 0.1952815, 0.4072069, 1.6087868, 2.1177297, 1.9889687, 1.6828557, -0.53970945, -0.7470473, 0.7735841, -0.070440054, -0.3150884, 1.5718374, 0.9616687, 0.3152356, 0.9030689, 2.5139236, 1.8331746, 0.7190156, -0.8454503, 0.0010267496, -0.23508406, 1.7166492, 0.9495547, 0.8009956, -0.09583616, 1.6310866, 2.060515, 0.6292448, 0.7610941, 0.6523268, 1.3428735, 0.30498195, 0.64220476, 1.0147864, -0.39477193, 0.43975067, 0.28005219, 2.3789783, 0.88741946, 0.22517669, 0.00036287308, -0.0544672, 0.028767109, 0.6603565, 0.7096752, 0.36030716, 0.9557408, -0.56627774, 0.49974036, 1.141732, 0.46764195, 2.2157924, -0.13071907, 1.6273206, 2.233066, 0.06808424, 2.2995446, 0.7346521, 1.2636466, 0.6139723, 1.0610876, 1.4789764, -0.56239223, 0.22377133, -0.2297858, -0.11832821, 0.44868863, 1.9921972, 1.5811906, -0.83279836, 2.1140196, 1.5279784, 1.7411371, 2.493259, -0.69642925, 0.2306397, 1.3432096, 0.32555187, 1.1133003, 0.25921392, 0.768785, 1.6610515, -0.24837768, 0.51009274, 0.5430784, 0.20140994, -0.29287696, -0.9077302, 0.23857188, 0.6862726, 0.7104018, 2.2268128, -0.8154869, -0.47043324, 1.6567578, 2.1159117, -0.9621422, 1.7766408, -0.01543808, 1.610388, -0.61594963, 1.3375922, 0.2204825, 1.696129, 1.6312747, -0.47701585, 1.3351839, 0.4075967, 0.67619, -0.19595766, 0.51025665, 2.2036736, 0.7835537, 2.1513178, 0.57212996, -0.8230815, 0.06641221, -0.8332745, 0.63446105, 0.3014326, 2.0958784, -0.8072487, 0.6196513, 2.1809494, 0.72280073, 0.7396829, 0.63777053, 1.3957785, 0.9849955, -0.17122054, -0.37608695, 2.2159631, 0.95083857, -0.6357738, 1.6580983, -0.5354074, 1.492238, 0.18584645, 0.07894969, -0.63415265, 2.3606303, 0.0743916, -0.6040094, 0.83163214, 0.9354354, -0.3582592, 0.24950719, 0.89661944, -0.9861468, ]
---------------------------------------------------------------------------------------------------------------------------------------------------------26
hide: [0.72069144, -0.5506201, 0.62132126, 2.3306954, 2.5373845, 1.7562536, -0.65612674, -0.17488813, 2.2905052, 0.3012128, 0.19439065, -0.64916754, 2.0352936, 1.8986323, 0.2858249, 0.6487068, 0.03729856, 0.5133164, 1.7840317, 1.9817106, -0.6589353, -0.15788221, 0.22676194, 0.031609416, -0.1023674, 0.15116167, -0.6481986, 0.7355232, 1.9442762, 1.7763251, 0.6311093, -0.31065214, 0.9298196, 1.6993943, 0.7695541, 0.8330376, -0.63692534, 1.8569099, 1.3815519, 0.49797928, 0.010681987, 0.32380295, 2.1789036, 1.9491632, 1.0012072, 2.258531, -0.14981794, 0.6826298, 1.3521556, 2.2013624, 1.8170892, 0.1952815, 0.4072069, 1.6337868, 2.1427298, 2.0139687, 1.7078557, -0.53970945, -0.7470473, 0.7985841, -0.070440054, -0.3150884, 1.5968374, 0.9866687, 0.3152356, 0.9030689, 2.5389237, 1.8581746, 0.7440156, -0.8454503, 0.0010267496, -0.23508406, 1.7416492, 0.9495547, 0.8009956, -0.09583616, 1.6560866, 2.085515, 0.6542448, 0.78609407, 0.6523268, 1.3678734, 0.30498195, 0.64220476, 1.0397863, -0.39477193, 0.43975067, 0.28005219, 2.4039783, 0.88741946, 0.22517669, 0.00036287308, -0.0544672, 0.028767109, 0.6853565, 0.73467517, 0.38530716, 0.9807408, -0.56627774, 0.49974036, 1.166732, 0.46764195, 2.2407925, -0.13071907, 1.6523206, 2.2580662, 0.06808424, 2.3245447, 0.7596521, 1.2886466, 0.6139723, 1.0860876, 1.5039763, -0.56239223, 0.22377133, -0.2297858, -0.11832821, 0.44868863, 2.0171971, 1.6061906, -0.83279836, 2.1390197, 1.5529784, 1.7661371, 2.518259, -0.69642925, 0.2306397, 1.3682096, 0.32555187, 1.1383003, 0.25921392, 0.793785, 1.6860515, -0.24837768, 0.51009274, 0.5430784, 0.20140994, -0.29287696, -0.9077302, 0.23857188, 0.7112726, 0.73540175, 2.251813, -0.8154869, -0.47043324, 1.6817578, 2.1409118, -0.9621422, 1.8016407, -0.01543808, 1.635388, -0.61594963, 1.3625922, 0.2454825, 1.721129, 1.6562747, -0.47701585, 1.3601838, 0.4075967, 0.70119, -0.19595766, 0.51025665, 2.2286737, 0.7835537, 2.176318, 0.57212996, -0.8230815, 0.06641221, -0.8332745, 0.63446105, 0.3014326, 2.1208785, -0.8072487, 0.6446513, 2.2059495, 0.72280073, 0.7396829, 0.6627705, 1.4207785, 0.9849955, -0.17122054, -0.37608695, 2.2409632, 0.97583854, -0.6357738, 1.6830983, -0.5354074, 1.517238, 0.18584645, 0.07894969, -0.63415265, 2.3856304, 0.0743916, -0.6040094, 0.83163214, 0.9354354, -0.3582592, 0.24950719, 0.89661944, -0.9861468, ]
---------------------------------------------------------------------------------------------------------------------------------------------------------27
hide: [0.72069144, -0.5506201, 0.64632124, 2.3556955, 2.5623846, 1.7812536, -0.65612674, -0.17488813, 2.3155053, 0.3012128, 0.19439065, -0.64916754, 2.0602937, 1.9236323, 0.2858249, 0.6487068, 0.03729856, 0.5133164, 1.8090317, 2.0067105, -0.6589353, -0.15788221, 0.22676194, 0.031609416, -0.1023674, 0.15116167, -0.6481986, 0.7355232, 1.9692762, 1.8013251, 0.6561093, -0.31065214, 0.95481956, 1.7243943, 0.79455405, 0.8330376, -0.63692534, 1.8819098, 1.4065518, 0.49797928, 0.010681987, 0.32380295, 2.2039037, 1.9741632, 1.0262072, 2.2835312, -0.14981794, 0.6826298, 1.3771555, 2.2263625, 1.8420892, 0.1952815, 0.4072069, 1.6587868, 2.1677299, 2.0389688, 1.7328557, -0.53970945, -0.7470473, 0.8235841, -0.070440054, -0.3150884, 1.6218374, 1.0116687, 0.3152356, 0.9030689, 2.5639238, 1.8831745, 0.76901555, -0.8454503, 0.0010267496, -0.23508406, 1.7666491, 0.9495547, 0.8009956, -0.09583616, 1.6810865, 2.110515, 0.67924476, 0.81109405, 0.6523268, 1.3928734, 0.30498195, 0.64220476, 1.0647863, -0.39477193, 0.43975067, 0.28005219, 2.4289784, 0.88741946, 0.22517669, 0.00036287308, -0.0544672, 0.028767109, 0.7103565, 0.75967515, 0.41030717, 1.0057408, -0.56627774, 0.49974036, 1.1917319, 0.46764195, 2.2657926, -0.13071907, 1.6773206, 2.2830663, 0.06808424, 2.3495448, 0.78465205, 1.3136466, 0.6139723, 1.1110876, 1.5289763, -0.56239223, 0.22377133, -0.2297858, -0.11832821, 0.44868863, 2.0421972, 1.6311905, -0.83279836, 2.1640198, 1.5779784, 1.7911371, 2.5432591, -0.69642925, 0.2306397, 1.3932096, 0.32555187, 1.1633003, 0.25921392, 0.81878495, 1.7110515, -0.24837768, 0.51009274, 0.5430784, 0.20140994, -0.29287696, -0.9077302, 0.23857188, 0.7362726, 0.7604017, 2.276813, -0.8154869, -0.47043324, 1.7067578, 2.165912, -0.9621422, 1.8266407, -0.01543808, 1.660388, -0.61594963, 1.3875922, 0.2704825, 1.7461289, 1.6812747, -0.47701585, 1.3851838, 0.4075967, 0.72619, -0.19595766, 0.51025665, 2.2536738, 0.7835537, 2.201318, 0.57212996, -0.8230815, 0.06641221, -0.8332745, 0.63446105, 0.3014326, 2.1458786, -0.8072487, 0.66965127, 2.2309496, 0.72280073, 0.7396829, 0.6877705, 1.4457785, 0.9849955, -0.17122054, -0.37608695, 2.2659633, 1.0008385, -0.6357738, 1.7080983, -0.5354074, 1.542238, 0.18584645, 0.07894969, -0.63415265, 2.4106305, 0.0743916, -0.6040094, 0.83163214, 0.9354354, -0.3582592, 0.24950719, 0.89661944, -0.9861468, ]
---------------------------------------------------------------------------------------------------------------------------------------------------------28
hide: [0.72069144, -0.5506201, 0.6713212, 2.3806956, 2.5873847, 1.8062536, -0.65612674, -0.17488813, 2.3405054, 0.3012128, 0.19439065, -0.64916754, 2.0852938, 1.9486322, 0.2858249, 0.6487068, 0.03729856, 0.5133164, 1.8340317, 2.0317106, -0.6589353, -0.15788221, 0.22676194, 0.031609416, -0.1023674, 0.15116167, -0.6481986, 0.7355232, 1.9942762, 1.826325, 0.68110925, -0.31065214, 0.97981954, 1.7493943, 0.81955403, 0.8330376, -0.63692534, 1.9069098, 1.4315518, 0.49797928, 0.010681987, 0.32380295, 2.2289038, 1.9991632, 1.0512072, 2.3085313, -0.14981794, 0.6826298, 1.4021555, 2.2513626, 1.8670892, 0.1952815, 0.4072069, 1.6837867, 2.19273, 2.063969, 1.7578557, -0.53970945, -0.7470473, 0.84858406, -0.070440054, -0.3150884, 1.6468374, 1.0366687, 0.3152356, 0.9030689, 2.588924, 1.9081745, 0.7940155, -0.8454503, 0.0010267496, -0.23508406, 1.7916491, 0.9495547, 0.8009956, -0.09583616, 1.7060865, 2.1355152, 0.70424473, 0.836094, 0.6523268, 1.4178734, 0.30498195, 0.64220476, 1.0897863, -0.39477193, 0.43975067, 0.28005219, 2.4539785, 0.88741946, 0.22517669, 0.00036287308, -0.0544672, 0.028767109, 0.73535645, 0.7846751, 0.43530717, 1.0307407, -0.56627774, 0.49974036, 1.2167319, 0.46764195, 2.2907927, -0.13071907, 1.7023206, 2.3080664, 0.06808424, 2.3745449, 0.80965203, 1.3386465, 0.6139723, 1.1360875, 1.5539763, -0.56239223, 0.22377133, -0.2297858, -0.11832821, 0.44868863, 2.0671973, 1.6561905, -0.83279836, 2.18902, 1.6029783, 1.8161371, 2.5682592, -0.69642925, 0.2306397, 1.4182096, 0.32555187, 1.1883003, 0.25921392, 0.8437849, 1.7360514, -0.24837768, 0.51009274, 0.5430784, 0.20140994, -0.29287696, -0.9077302, 0.23857188, 0.76127255, 0.7854017, 2.3018131, -0.8154869, -0.47043324, 1.7317578, 2.190912, -0.9621422, 1.8516407, -0.01543808, 1.685388, -0.61594963, 1.4125922, 0.29548252, 1.7711289, 1.7062746, -0.47701585, 1.4101838, 0.4075967, 0.75118995, -0.19595766, 0.51025665, 2.278674, 0.7835537, 2.2263181, 0.57212996, -0.8230815, 0.06641221, -0.8332745, 0.63446105, 0.3014326, 2.1708786, -0.8072487, 0.69465125, 2.2559497, 0.72280073, 0.7396829, 0.71277046, 1.4707785, 0.9849955, -0.17122054, -0.37608695, 2.2909634, 1.0258385, -0.6357738, 1.7330983, -0.5354074, 1.567238, 0.18584645, 0.07894969, -0.63415265, 2.4356306, 0.0743916, -0.6040094, 0.83163214, 0.9354354, -0.3582592, 0.24950719, 0.89661944, -0.9861468, ]
---------------------------------------------------------------------------------------------------------------------------------------------------------29
hide: [0.72069144, -0.5506201, 0.6963212, 2.4056957, 2.6123848, 1.8312535, -0.65612674, -0.17488813, 2.3655055, 0.3012128, 0.19439065, -0.64916754, 2.1102939, 1.9736322, 0.2858249, 0.6487068, 0.03729856, 0.5133164, 1.8590317, 2.0567107, -0.6589353, -0.15788221, 0.22676194, 0.031609416, -0.1023674, 0.15116167, -0.6481986, 0.7355232, 2.0192761, 1.851325, 0.7061092, -0.31065214, 1.0048195, 1.7743943, 0.844554, 0.8330376, -0.63692534, 1.9319098, 1.4565518, 0.49797928, 0.010681987, 0.32380295, 2.2539039, 2.0241632, 1.0762072, 2.3335314, -0.14981794, 0.6826298, 1.4271555, 2.2763627, 1.8920891, 0.1952815, 0.4072069, 1.7087867, 2.21773, 2.088969, 1.7828556, -0.53970945, -0.7470473, 0.87358403, -0.070440054, -0.3150884, 1.6718373, 1.0616686, 0.3152356, 0.9030689, 2.613924, 1.9331745, 0.8190155, -0.8454503, 0.0010267496, -0.23508406, 1.8166491, 0.9495547, 0.8009956, -0.09583616, 1.7310865, 2.1605153, 0.7292447, 0.861094, 0.6523268, 1.4428734, 0.30498195, 0.64220476, 1.1147863, -0.39477193, 0.43975067, 0.28005219, 2.4789786, 0.88741946, 0.22517669, 0.00036287308, -0.0544672, 0.028767109, 0.7603564, 0.8096751, 0.46030718, 1.0557407, -0.56627774, 0.49974036, 1.2417319, 0.46764195, 2.3157928, -0.13071907, 1.7273206, 2.3330665, 0.06808424, 2.399545, 0.834652, 1.3636465, 0.6139723, 1.1610875, 1.5789763, -0.56239223, 0.22377133, -0.2297858, -0.11832821, 0.44868863, 2.0921974, 1.6811905, -0.83279836, 2.21402, 1.6279783, 1.841137, 2.5932593, -0.69642925, 0.2306397, 1.4432095, 0.32555187, 1.2133002, 0.25921392, 0.8687849, 1.7610514, -0.24837768, 0.51009274, 0.5430784, 0.20140994, -0.29287696, -0.9077302, 0.23857188, 0.7862725, 0.8104017, 2.3268132, -0.8154869, -0.47043324, 1.7567577, 2.215912, -0.9621422, 1.8766407, -0.01543808, 1.710388, -0.61594963, 1.4375921, 0.32048252, 1.7961289, 1.7312746, -0.47701585, 1.4351838, 0.4075967, 0.7761899, -0.19595766, 0.51025665, 2.303674, 0.7835537, 2.2513182, 0.57212996, -0.8230815, 0.06641221, -0.8332745, 0.63446105, 0.3014326, 2.1958787, -0.8072487, 0.7196512, 2.2809498, 0.72280073, 0.7396829, 0.73777044, 1.4957784, 0.9849955, -0.17122054, -0.37608695, 2.3159635, 1.0508385, -0.6357738, 1.7580982, -0.5354074, 1.592238, 0.18584645, 0.07894969, -0.63415265, 2.4606307, 0.0743916, -0.6040094, 0.83163214, 0.9354354, -0.3582592, 0.24950719, 0.89661944, -0.9861468, ]
---------------------------------------------------------------------------------------------------------------------------------------------------------30
hide: [0.72069144, -0.5506201, 0.72132117, 2.4306958, 2.637385, 1.8562535, -0.65612674, -0.17488813, 2.3905056, 0.3012128, 0.19439065, -0.64916754, 2.135294, 1.9986322, 0.2858249, 0.6487068, 0.03729856, 0.5133164, 1.8840317, 2.0817108, -0.6589353, -0.15788221, 0.22676194, 0.031609416, -0.1023674, 0.15116167, -0.6481986, 0.7355232, 2.0442762, 1.876325, 0.7311092, -0.31065214, 1.0298195, 1.7993942, 0.869554, 0.8330376, -0.63692534, 1.9569098, 1.4815518, 0.49797928, 0.010681987, 0.32380295, 2.278904, 2.0491633, 1.1012071, 2.3585315, -0.14981794, 0.6826298, 1.4521555, 2.3013628, 1.9170891, 0.1952815, 0.4072069, 1.7337867, 2.2427301, 2.113969, 1.8078556, -0.53970945, -0.7470473, 0.898584, -0.070440054, -0.3150884, 1.6968373, 1.0866686, 0.3152356, 0.9030689, 2.6389241, 1.9581745, 0.8440155, -0.8454503, 0.0010267496, -0.23508406, 1.841649, 0.9495547, 0.8009956, -0.09583616, 1.7560865, 2.1855154, 0.7542447, 0.886094, 0.6523268, 1.4678733, 0.30498195, 0.64220476, 1.1397862, -0.39477193, 0.43975067, 0.28005219, 2.5039787, 0.88741946, 0.22517669, 0.00036287308, -0.0544672, 0.028767109, 0.7853564, 0.8346751, 0.4853072, 1.0807407, -0.56627774, 0.49974036, 1.2667319, 0.46764195, 2.340793, -0.13071907, 1.7523205, 2.3580666, 0.06808424, 2.424545, 0.859652, 1.3886465, 0.6139723, 1.1860875, 1.6039762, -0.56239223, 0.22377133, -0.2297858, -0.11832821, 0.44868863, 2.1171975, 1.7061905, -0.83279836, 2.23902, 1.6529783, 1.866137, 2.6182594, -0.69642925, 0.2306397, 1.4682095, 0.32555187, 1.2383002, 0.25921392, 0.8937849, 1.7860514, -0.24837768, 0.51009274, 0.5430784, 0.20140994, -0.29287696, -0.9077302, 0.23857188, 0.8112725, 0.83540165, 2.3518133, -0.8154869, -0.47043324, 1.7817577, 2.2409122, -0.9621422, 1.9016407, -0.01543808, 1.7353879, -0.61594963, 1.4625921, 0.34548253, 1.8211288, 1.7562746, -0.47701585, 1.4601837, 0.4075967, 0.8011899, -0.19595766, 0.51025665, 2.328674, 0.7835537, 2.2763183, 0.57212996, -0.8230815, 0.06641221, -0.8332745, 0.63446105, 0.3014326, 2.2208788, -0.8072487, 0.7446512, 2.30595, 0.72280073, 0.7396829, 0.7627704, 1.5207784, 0.9849955, -0.17122054, -0.37608695, 2.3409636, 1.0758384, -0.6357738, 1.7830982, -0.5354074, 1.6172379, 0.18584645, 0.07894969, -0.63415265, 2.4856308, 0.0743916, -0.6040094, 0.83163214, 0.9354354, -0.3582592, 0.24950719, 0.89661944, -0.9861468, ]
---------------------------------------------------------------------------------------------------------------------------------------------------------31
hide: [0.72069144, -0.5506201, 0.74632114, 2.4556959, 2.662385, 1.8812535, -0.65612674, -0.17488813, 2.4155056, 0.3012128, 0.19439065, -0.64916754, 2.160294, 2.0236323, 0.2858249, 0.6487068, 0.03729856, 0.5133164, 1.9090316, 2.106711, -0.6589353, -0.15788221, 0.22676194, 0.031609416, -0.1023674, 0.15116167, -0.6481986, 0.7355232, 2.0692763, 1.901325, 0.7561092, -0.31065214, 1.0548195, 1.8243942, 0.89455396, 0.8330376, -0.63692534, 1.9819098, 1.5065517, 0.49797928, 0.010681987, 0.32380295, 2.303904, 2.0741634, 1.1262071, 2.3835316, -0.14981794, 0.6826298, 1.4771554, 2.3263628, 1.9420891, 0.1952815, 0.4072069, 1.7587867, 2.2677302, 2.1389692, 1.8328556, -0.53970945, -0.7470473, 0.923584, -0.070440054, -0.3150884, 1.7218373, 1.1116686, 0.3152356, 0.9030689, 2.6639242, 1.9831744, 0.86901546, -0.8454503, 0.0010267496, -0.23508406, 1.866649, 0.9495547, 0.8009956, -0.09583616, 1.7810864, 2.2105155, 0.77924466, 0.91109395, 0.6523268, 1.4928733, 0.30498195, 0.64220476, 1.1647862, -0.39477193, 0.43975067, 0.28005219, 2.5289788, 0.88741946, 0.22517669, 0.00036287308, -0.0544672, 0.028767109, 0.8103564, 0.85967505, 0.5103072, 1.1057407, -0.56627774, 0.49974036, 1.2917318, 0.46764195, 2.365793, -0.13071907, 1.7773205, 2.3830667, 0.06808424, 2.4495451, 0.88465196, 1.4136465, 0.6139723, 1.2110875, 1.6289762, -0.56239223, 0.22377133, -0.2297858, -0.11832821, 0.44868863, 2.1421976, 1.7311904, -0.83279836, 2.2640202, 1.6779783, 1.891137, 2.6432595, -0.69642925, 0.2306397, 1.4932095, 0.32555187, 1.2633002, 0.25921392, 0.91878486, 1.8110514, -0.24837768, 0.51009274, 0.5430784, 0.20140994, -0.29287696, -0.9077302, 0.23857188, 0.8362725, 0.86040163, 2.3768134, -0.8154869, -0.47043324, 1.8067577, 2.2659123, -0.9621422, 1.9266406, -0.01543808, 1.7603879, -0.61594963, 1.4875921, 0.37048253, 1.8461288, 1.7812746, -0.47701585, 1.4851837, 0.4075967, 0.8261899, -0.19595766, 0.51025665, 2.3536742, 0.7835537, 2.3013184, 0.57212996, -0.8230815, 0.06641221, -0.8332745, 0.63446105, 0.3014326, 2.245879, -0.8072487, 0.7696512, 2.33095, 0.72280073, 0.7396829, 0.7877704, 1.5457784, 0.9849955, -0.17122054, -0.37608695, 2.3659637, 1.1008384, -0.6357738, 1.8080982, -0.5354074, 1.6422379, 0.18584645, 0.07894969, -0.63415265, 2.5106308, 0.0743916, -0.6040094, 0.83163214, 0.9354354, -0.3582592, 0.24950719, 0.89661944, -0.9861468, ]
---------------------------------------------------------------------------------------------------------------------------------------------------------32
hide: [0.72069144, -0.5506201, 0.7713211, 2.480696, 2.687385, 1.9062535, -0.65612674, -0.17488813, 2.4405057, 0.3012128, 0.19439065, -0.64916754, 2.1852942, 2.0486324, 0.2858249, 0.6487068, 0.03729856, 0.5133164, 1.9340316, 2.131711, -0.6589353, -0.15788221, 0.22676194, 0.031609416, -0.1023674, 0.15116167, -0.6481986, 0.7355232, 2.0942764, 1.926325, 0.78110915, -0.31065214, 1.0548195, 1.8493942, 0.91955394, 0.8330376, -0.63692534, 2.0069098, 1.5315517, 0.49797928, 0.010681987, 0.32380295, 2.3289042, 2.0991635, 1.1512071, 2.4085317, -0.14981794, 0.6826298, 1.5021554, 2.351363, 1.967089, 0.1952815, 0.4072069, 1.7837867, 2.2927303, 2.1639693, 1.8578556, -0.53970945, -0.7470473, 0.94858396, -0.070440054, -0.3150884, 1.7468373, 1.1366686, 0.3152356, 0.9030689, 2.6889243, 2.0081744, 0.89401543, -0.8454503, 0.0010267496, -0.23508406, 1.891649, 0.9495547, 0.8009956, -0.09583616, 1.8060864, 2.2355156, 0.80424464, 0.9360939, 0.6523268, 1.5178733, 0.30498195, 0.64220476, 1.1897862, -0.39477193, 0.43975067, 0.28005219, 2.553979, 0.88741946, 0.22517669, 0.00036287308, -0.0544672, 0.028767109, 0.83535635, 0.884675, 0.53530717, 1.1307406, -0.56627774, 0.49974036, 1.3167318, 0.46764195, 2.390793, -0.13071907, 1.8023205, 2.4080667, 0.06808424, 2.4745452, 0.90965194, 1.4386464, 0.6139723, 1.2360874, 1.6539762, -0.56239223, 0.22377133, -0.2297858, -0.11832821, 0.44868863, 2.1671977, 1.7561904, -0.83279836, 2.2890203, 1.7029783, 1.916137, 2.6682596, -0.69642925, 0.2306397, 1.5182095, 0.32555187, 1.2883002, 0.25921392, 0.94378483, 1.8360513, -0.24837768, 0.51009274, 0.5430784, 0.20140994, -0.29287696, -0.9077302, 0.23857188, 0.86127245, 0.8854016, 2.4018135, -0.8154869, -0.47043324, 1.8317577, 2.2909124, -0.9621422, 1.9516406, -0.01543808, 1.7853879, -0.61594963, 1.5125921, 0.39548254, 1.8711288, 1.8062745, -0.47701585, 1.5101837, 0.4075967, 0.85118985, -0.19595766, 0.51025665, 2.3786743, 0.7835537, 2.3263185, 0.57212996, -0.8230815, 0.06641221, -0.8332745, 0.63446105, 0.3014326, 2.270879, -0.8072487, 0.79465115, 2.35595, 0.72280073, 0.7396829, 0.81277037, 1.5707784, 0.9849955, -0.17122054, -0.37608695, 2.3909638, 1.1258384, -0.6357738, 1.8330982, -0.5354074, 1.6672379, 0.18584645, 0.07894969, -0.63415265, 2.535631, 0.0743916, -0.6040094, 0.83163214, 0.9354354, -0.3582592, 0.24950719, 0.89661944, -0.9861468, ]
---------------------------------------------------------------------------------------------------------------------------------------------------------33
hide: [0.72069144, -0.5506201, 0.7963211, 2.505696, 2.7123852, 1.9312534, -0.65612674, -0.17488813, 2.4655058, 0.3012128, 0.19439065, -0.64916754, 2.2102942, 2.0736325, 0.2858249, 0.6487068, 0.03729856, 0.5133164, 1.9590316, 2.156711, -0.6589353, -0.15788221, 0.22676194, 0.031609416, -0.1023674, 0.15116167, -0.6481986, 0.7355232, 2.1192765, 1.9513249, 0.80610913, -0.31065214, 1.0548195, 1.8743942, 0.9445539, 0.8330376, -0.63692534, 2.03191, 1.5565517, 0.49797928, 0.010681987, 0.32380295, 2.3539042, 2.1241636, 1.1762071, 2.4335318, -0.14981794, 0.6826298, 1.5271554, 2.376363, 1.992089, 0.1952815, 0.4072069, 1.8087866, 2.3177304, 2.1889694, 1.8828555, -0.53970945, -0.7470473, 0.97358394, -0.070440054, -0.3150884, 1.7718372, 1.1616685, 0.3152356, 0.9030689, 2.7139244, 2.0331745, 0.9190154, -0.8454503, 0.0010267496, -0.23508406, 1.916649, 0.9495547, 0.8009956, -0.09583616, 1.8310864, 2.2605157, 0.8292446, 0.9610939, 0.6523268, 1.5428733, 0.30498195, 0.64220476, 1.2147862, -0.39477193, 0.43975067, 0.28005219, 2.578979, 0.88741946, 0.22517669, 0.00036287308, -0.0544672, 0.028767109, 0.86035633, 0.909675, 0.56030715, 1.1557406, -0.56627774, 0.49974036, 1.3417318, 0.46764195, 2.4157932, -0.13071907, 1.8273205, 2.4330668, 0.06808424, 2.4995453, 0.9346519, 1.4636464, 0.6139723, 1.2610874, 1.6789762, -0.56239223, 0.22377133, -0.2297858, -0.11832821, 0.44868863, 2.1921978, 1.7811904, -0.83279836, 2.3140204, 1.7279782, 1.941137, 2.6932597, -0.69642925, 0.2306397, 1.5432094, 0.32555187, 1.3133001, 0.25921392, 0.9687848, 1.8610513, -0.24837768, 0.51009274, 0.5430784, 0.20140994, -0.29287696, -0.9077302, 0.23857188, 0.88627243, 0.9104016, 2.4268136, -0.8154869, -0.47043324, 1.8567576, 2.3159125, -0.9621422, 1.9766406, -0.01543808, 1.8103878, -0.61594963, 1.537592, 0.42048255, 1.8961288, 1.8312745, -0.47701585, 1.5351837, 0.4075967, 0.8761898, -0.19595766, 0.51025665, 2.4036744, 0.7835537, 2.3513186, 0.57212996, -0.8230815, 0.06641221, -0.8332745, 0.63446105, 0.3014326, 2.2958791, -0.8072487, 0.8196511, 2.3809502, 0.72280073, 0.7396829, 0.83777034, 1.5957783, 0.9849955, -0.17122054, -0.37608695, 2.415964, 1.1508384, -0.6357738, 1.8580981, -0.5354074, 1.6922379, 0.18584645, 0.07894969, -0.63415265, 2.560631, 0.0743916, -0.6040094, 0.83163214, 0.9354354, -0.3582592, 0.24950719, 0.89661944, -0.9861468, ]
---------------------------------------------------------------------------------------------------------------------------------------------------------34
hide: [0.72069144, -0.5506201, 0.82132107, 2.5306962, 2.7373853, 1.9562534, -0.65612674, -0.17488813, 2.490506, 0.3012128, 0.19439065, -0.64916754, 2.2352943, 2.0986326, 0.2858249, 0.6487068, 0.03729856, 0.5133164, 1.9840316, 2.1817112, -0.6589353, -0.15788221, 0.22676194, 0.031609416, -0.1023674, 0.15116167, -0.6481986, 0.7355232, 2.1442766, 1.9763249, 0.8311091, -0.31065214, 1.0548195, 1.8993942, 0.9695539, 0.8330376, -0.63692534, 2.05691, 1.5815517, 0.49797928, 0.010681987, 0.32380295, 2.3789043, 2.1491637, 1.201207, 2.4585319, -0.14981794, 0.6826298, 1.5521554, 2.4013631, 2.0170891, 0.1952815, 0.4072069, 1.8337866, 2.3427305, 2.2139695, 1.9078555, -0.53970945, -0.7470473, 0.9985839, -0.070440054, -0.3150884, 1.7968372, 1.1866685, 0.3152356, 0.9030689, 2.7389245, 2.0581746, 0.9440154, -0.8454503, 0.0010267496, -0.23508406, 1.941649, 0.9495547, 0.8009956, -0.09583616, 1.8560864, 2.2855158, 0.8542446, 0.9860939, 0.6523268, 1.5678732, 0.30498195, 0.64220476, 1.2397861, -0.39477193, 0.43975067, 0.28005219, 2.603979, 0.88741946, 0.22517669, 0.00036287308, -0.0544672, 0.028767109, 0.8853563, 0.934675, 0.5853071, 1.1807406, -0.56627774, 0.49974036, 1.3667318, 0.46764195, 2.4407933, -0.13071907, 1.8523204, 2.458067, 0.06808424, 2.5245454, 0.9596519, 1.4886464, 0.6139723, 1.2860874, 1.7039762, -0.56239223, 0.22377133, -0.2297858, -0.11832821, 0.44868863, 2.217198, 1.8061904, -0.83279836, 2.3390205, 1.7529782, 1.9661369, 2.7182598, -0.69642925, 0.2306397, 1.5682094, 0.32555187, 1.3383001, 0.25921392, 0.9937848, 1.8860513, -0.24837768, 0.51009274, 0.5430784, 0.20140994, -0.29287696, -0.9077302, 0.23857188, 0.9112724, 0.93540156, 2.4518137, -0.8154869, -0.47043324, 1.8817576, 2.3409126, -0.9621422, 2.0016406, -0.01543808, 1.8353878, -0.61594963, 1.562592, 0.44548255, 1.9211287, 1.8562745, -0.47701585, 1.5601836, 0.4075967, 0.9011898, -0.19595766, 0.51025665, 2.4286745, 0.7835537, 2.3763187, 0.57212996, -0.8230815, 0.06641221, -0.8332745, 0.63446105, 0.3014326, 2.3208792, -0.8072487, 0.8446511, 2.4059503, 0.72280073, 0.7396829, 0.8627703, 1.6207783, 0.9849955, -0.17122054, -0.37608695, 2.440964, 1.1758384, -0.6357738, 1.8830981, -0.5354074, 1.7172378, 0.18584645, 0.07894969, -0.63415265, 2.5856311, 0.0743916, -0.6040094, 0.83163214, 0.9354354, -0.3582592, 0.24950719, 0.89661944, -0.9861468, ]
---------------------------------------------------------------------------------------------------------------------------------------------------------35
hide: [0.72069144, -0.5506201, 0.84632105, 2.5556962, 2.7623854, 1.9812534, -0.65612674, -0.17488813, 2.515506, 0.3012128, 0.19439065, -0.64916754, 2.2602944, 2.1236327, 0.2858249, 0.6487068, 0.03729856, 0.5133164, 2.0090315, 2.2067113, -0.6589353, -0.15788221, 0.22676194, 0.031609416, -0.1023674, 0.15116167, -0.6481986, 0.7355232, 2.1692767, 2.001325, 0.8561091, -0.31065214, 1.0548195, 1.9243941, 0.99455386, 0.8330376, -0.63692534, 2.0819101, 1.6065516, 0.49797928, 0.010681987, 0.32380295, 2.4039044, 2.1741638, 1.226207, 2.483532, -0.14981794, 0.6826298, 1.5771554, 2.4263632, 2.0420892, 0.1952815, 0.4072069, 1.8587866, 2.3677306, 2.2389696, 1.9328555, -0.53970945, -0.7470473, 1.0235839, -0.070440054, -0.3150884, 1.8218372, 1.2116685, 0.3152356, 0.9030689, 2.7639246, 2.0831747, 0.96901536, -0.8454503, 0.0010267496, -0.23508406, 1.9666489, 0.9495547, 0.8009956, -0.09583616, 1.8810863, 2.3105159, 0.87924457, 1.0110939, 0.6523268, 1.5928732, 0.30498195, 0.64220476, 1.2647861, -0.39477193, 0.43975067, 0.28005219, 2.6289792, 0.88741946, 0.22517669, 0.00036287308, -0.0544672, 0.028767109, 0.9103563, 0.95967495, 0.6103071, 1.2057406, -0.56627774, 0.49974036, 1.3917317, 0.46764195, 2.4657934, -0.13071907, 1.8773204, 2.483067, 0.06808424, 2.5495455, 0.98465186, 1.5136464, 0.6139723, 1.3110874, 1.7289761, -0.56239223, 0.22377133, -0.2297858, -0.11832821, 0.44868863, 2.242198, 1.8311903, -0.83279836, 2.3640206, 1.7779782, 1.9911369, 2.74326, -0.69642925, 0.2306397, 1.5932094, 0.32555187, 1.3633001, 0.25921392, 1.0187848, 1.9110513, -0.24837768, 0.51009274, 0.5430784, 0.20140994, -0.29287696, -0.9077302, 0.23857188, 0.9362724, 0.96040154, 2.4768138, -0.8154869, -0.47043324, 1.9067576, 2.3659127, -0.9621422, 2.0266407, -0.01543808, 1.8603878, -0.61594963, 1.587592, 0.47048256, 1.9461287, 1.8812745, -0.47701585, 1.5851836, 0.4075967, 0.9261898, -0.19595766, 0.51025665, 2.4536746, 0.7835537, 2.4013188, 0.57212996, -0.8230815, 0.06641221, -0.8332745, 0.63446105, 0.3014326, 2.3458793, -0.8072487, 0.8696511, 2.4309504, 0.72280073, 0.7396829, 0.8877703, 1.6457783, 0.9849955, -0.17122054, -0.37608695, 2.465964, 1.2008383, -0.6357738, 1.9080981, -0.5354074, 1.7422378, 0.18584645, 0.07894969, -0.63415265, 2.6106312, 0.0743916, -0.6040094, 0.83163214, 0.9354354, -0.3582592, 0.24950719, 0.89661944, -0.9861468, ]
---------------------------------------------------------------------------------------------------------------------------------------------------------36
hide: [0.72069144, -0.5506201, 0.871321, 2.5806963, 2.7873855, 2.0062535, -0.65612674, -0.17488813, 2.5405061, 0.3012128, 0.19439065, -0.64916754, 2.2852945, 2.1486328, 0.2858249, 0.6487068, 0.03729856, 0.5133164, 2.0340316, 2.2317114, -0.6589353, -0.15788221, 0.22676194, 0.031609416, -0.1023674, 0.15116167, -0.6481986, 0.7355232, 2.1942768, 2.026325, 0.88110906, -0.31065214, 1.0548195, 1.9493941, 1.0195539, 0.8330376, -0.63692534, 2.1069102, 1.6315516, 0.49797928, 0.010681987, 0.32380295, 2.4289045, 2.199164, 1.251207, 2.508532, -0.14981794, 0.6826298, 1.6021553, 2.4513633, 2.0670893, 0.1952815, 0.4072069, 1.8837866, 2.3927307, 2.2639697, 1.9578555, -0.53970945, -0.7470473, 1.0485839, -0.070440054, -0.3150884, 1.8468372, 1.2366685, 0.3152356, 0.9030689, 2.7889247, 2.1081748, 0.99401534, -0.8454503, 0.0010267496, -0.23508406, 1.9916489, 0.9495547, 0.8009956, -0.09583616, 1.9060863, 2.335516, 0.90424454, 1.0360938, 0.6523268, 1.6178732, 0.30498195, 0.64220476, 1.2897861, -0.39477193, 0.43975067, 0.28005219, 2.6539793, 0.88741946, 0.22517669, 0.00036287308, -0.0544672, 0.028767109, 0.93535626, 0.98467493, 0.6353071, 1.2307405, -0.56627774, 0.49974036, 1.4167317, 0.46764195, 2.4907935, -0.13071907, 1.9023204, 2.5080671, 0.06808424, 2.5745456, 1.0096519, 1.5386463, 0.6139723, 1.3360873, 1.7539761, -0.56239223, 0.22377133, -0.2297858, -0.11832821, 0.44868863, 2.267198, 1.8561903, -0.83279836, 2.3890207, 1.8029782, 2.016137, 2.76826, -0.69642925, 0.2306397, 1.6182094, 0.32555187, 1.3883001, 0.25921392, 1.0437847, 1.9360512, -0.24837768, 0.51009274, 0.5430784, 0.20140994, -0.29287696, -0.9077302, 0.23857188, 0.96127236, 0.9854015, 2.501814, -0.8154869, -0.47043324, 1.9317576, 2.3909128, -0.9621422, 2.0516407, -0.01543808, 1.8853878, -0.61594963, 1.612592, 0.49548256, 1.9711287, 1.9062744, -0.47701585, 1.6101836, 0.4075967, 0.95118976, -0.19595766, 0.51025665, 2.4786747, 0.7835537, 2.426319, 0.57212996, -0.8230815, 0.06641221, -0.8332745, 0.63446105, 0.3014326, 2.3708794, -0.8072487, 0.89465106, 2.4559505, 0.72280073, 0.7396829, 0.9127703, 1.6707783, 0.9849955, -0.17122054, -0.37608695, 2.4909642, 1.2258383, -0.6357738, 1.9330981, -0.5354074, 1.7672378, 0.18584645, 0.07894969, -0.63415265, 2.6356313, 0.0743916, -0.6040094, 0.83163214, 0.9354354, -0.3582592, 0.24950719, 0.89661944, -0.9861468, ]
---------------------------------------------------------------------------------------------------------------------------------------------------------37
hide: [0.72069144, -0.5506201, 0.896321, 2.6056964, 2.8123856, 2.0312536, -0.65612674, -0.17488813, 2.5655062, 0.3012128, 0.19439065, -0.64916754, 2.3102946, 2.1736329, 0.2858249, 0.6487068, 0.03729856, 0.5133164, 2.0590317, 2.2567115, -0.6589353, -0.15788221, 0.22676194, 0.031609416, -0.1023674, 0.15116167, -0.6481986, 0.7355232, 2.219277, 2.051325, 0.90610904, -0.31065214, 1.0548195, 1.9743941, 1.0445539, 0.8330376, -0.63692534, 2.1319103, 1.6565516, 0.49797928, 0.010681987, 0.32380295, 2.4539046, 2.224164, 1.276207, 2.5335321, -0.14981794, 0.6826298, 1.6271553, 2.4763634, 2.0920894, 0.1952815, 0.4072069, 1.9087865, 2.4177308, 2.2889698, 1.9828554, -0.53970945, -0.7470473, 1.0735838, -0.070440054, -0.3150884, 1.8718371, 1.2616684, 0.3152356, 0.9030689, 2.8139248, 2.133175, 1.0190153, -0.8454503, 0.0010267496, -0.23508406, 2.016649, 0.9495547, 0.8009956, -0.09583616, 1.9310863, 2.360516, 0.9292445, 1.0610938, 0.6523268, 1.6428732, 0.30498195, 0.64220476, 1.3147861, -0.39477193, 0.43975067, 0.28005219, 2.6789794, 0.88741946, 0.22517669, 0.00036287308, -0.0544672, 0.028767109, 0.96035624, 1.0096749, 0.66030705, 1.2557405, -0.56627774, 0.49974036, 1.4417317, 0.46764195, 2.5157936, -0.13071907, 1.9273204, 2.5330672, 0.06808424, 2.5995457, 1.0346519, 1.5636463, 0.6139723, 1.3610873, 1.7789761, -0.56239223, 0.22377133, -0.2297858, -0.11832821, 0.44868863, 2.2921982, 1.8811903, -0.83279836, 2.4140208, 1.8279781, 2.041137, 2.79326, -0.69642925, 0.2306397, 1.6432093, 0.32555187, 1.4133, 0.25921392, 1.0687847, 1.9610512, -0.24837768, 0.51009274, 0.5430784, 0.20140994, -0.29287696, -0.9077302, 0.23857188, 0.98627234, 1.0104015, 2.526814, -0.8154869, -0.47043324, 1.9567575, 2.4159129, -0.9621422, 2.0766408, -0.01543808, 1.9103878, -0.61594963, 1.637592, 0.52048254, 1.9961287, 1.9312744, -0.47701585, 1.6351836, 0.4075967, 0.97618973, -0.19595766, 0.51025665, 2.5036747, 0.7835537, 2.451319, 0.57212996, -0.8230815, 0.06641221, -0.8332745, 0.63446105, 0.3014326, 2.3958795, -0.8072487, 0.91965103, 2.4809506, 0.72280073, 0.7396829, 0.93777025, 1.6957783, 0.9849955, -0.17122054, -0.37608695, 2.5159643, 1.2508383, -0.6357738, 1.958098, -0.5354074, 1.7922378, 0.18584645, 0.07894969, -0.63415265, 2.6606314, 0.0743916, -0.6040094, 0.83163214, 0.9354354, -0.3582592, 0.24950719, 0.89661944, -0.9861468, ]
---------------------------------------------------------------------------------------------------------------------------------------------------------38
